double w1[784*30] = { -7.17848605e-02 , -1.38981230e+00 , -8.93901313e-01 , -9.03234295e-01
  ,  5.94311526e-01,  -8.80791150e-01,   2.44137616e+00,  -1.37712799e+00
  , -3.60174109e-01,   8.33774712e-01,   1.72146598e-01,   9.56703872e-01
  , -2.17925163e-01,  -1.49221744e-01,  -1.01146808e+00,   2.35916814e-01
  ,  6.67950999e-01,  -5.24648319e-01,   1.15396262e+00,   8.52412488e-01
  ,  9.63217004e-01,   2.60872278e-01,   7.38825341e-01,   2.72150943e-01
  , -2.00386517e+00,   8.57365338e-01,   3.04949619e-01,  -9.35410908e-02
  ,  4.04577336e-01,   8.48575378e-01,  -1.75908192e+00,   9.65940477e-01
  , -8.57993530e-01,  -2.78839421e+00,  -2.54880524e-01,  -2.61869374e+00
  ,  8.23172672e-01,  -8.15997561e-01,   4.01474446e-01,   2.97108870e-01
  , -1.65714019e+00,   1.26823746e+00,   9.71024679e-01,   4.94092068e-01
  , -7.78889593e-01,  -7.21343678e-01,  -3.44433271e-01,  -5.53402952e-01
  , -2.60757917e-01,  -1.65390072e+00,  -1.71032162e+00,  -5.88201273e-01
  ,  6.97000714e-01,  -1.35598528e+00,   9.09369898e-01,  -1.46497478e+00
  , -1.39240502e+00,   1.44581869e+00,  -4.87300537e-01,   1.86597548e-01
  , -1.73610939e-01,   4.03567035e-02,   6.56328773e-01,  -2.87251106e-01
  ,  3.38812007e-01,   1.83183276e-01,   6.58403476e-01,  -1.21961893e-01
  ,  8.88225706e-01,  -1.03763828e+00,  -2.29354562e-01,  -1.18629435e+00
  , -8.35132383e-01,   6.97133078e-01,  -1.50485374e+00,   4.05598294e-01
  , -1.61983422e+00,   2.90687277e+00,  -2.17815254e+00,   6.46357650e-01
  ,  2.86846684e-01,  -2.80455011e-03,  -9.65088373e-01,  -6.00337924e-01
  ,  6.07416230e-01,  -4.80284407e-02,   1.68302612e+00,  -7.17682407e-01
  , -6.76625836e-02,   4.79446106e-01,   1.31749960e+00,   1.40993877e+00
  , -1.57596136e+00,  -1.87080933e-01,  -1.53629831e+00,  -2.33874887e+00
  ,  5.95041117e-01,  -1.94999031e+00,  -1.27680011e+00,   4.27472459e-02
  ,  9.53044707e-01,   2.89022090e+00,   5.97568875e-01,  -7.10543782e-01
  ,  1.34148395e+00,  -2.97465842e-02,   9.10318007e-01,  -9.07450591e-01
  ,  2.30403299e-01,   6.16329302e-02,   8.27906806e-01,   1.32364202e+00
  , -1.21589975e+00,  -6.46829501e-01,  -9.13939706e-01,   8.43079164e-03
  ,  1.75454170e+00,   5.04376289e-02,   1.84770706e+00,   6.06910328e-01
  , -6.80514582e-01,  -5.42783601e-01,  -2.25860222e+00,  -6.82022271e-01
  , -2.96294896e+00,  -3.79194678e-01,  -5.98196688e-01,   4.60067964e-01
  ,  1.09696251e+00,   2.71418190e+00,  -1.09102183e+00,   9.27218458e-01
  ,  1.52623688e+00,  -3.54175490e-01,   9.79483502e-01,  -1.07889811e+00
  , -1.17616560e+00,  -1.84979018e+00,  -1.32549663e-01,   3.48413019e-01
  , -1.02121660e+00,   5.06093770e-01,  -1.79112770e-01,  -4.58733391e-01
  , -1.97854246e-01,   1.59566706e+00,  -3.20070356e-01,  -3.45321503e-01
  , -4.68115665e-01,  -8.22872850e-01,  -1.11106517e-02,  -9.10040120e-01
  , -2.46959797e+00,  -1.25890691e+00,   6.31287025e-01,  -2.84308864e-01
  , -5.56193192e-01,   1.63088290e+00,  -2.47228855e-01,   1.46002757e+00
  , -9.42825214e-01,  -2.04377817e-02,   5.75037402e-02,   3.08043763e-01
  , -2.49223298e+00,  -2.01267826e+00,  -1.71964645e+00,  -7.60816518e-01
  , -1.80877998e+00,  -7.70109082e-01,   5.64576452e-01,   1.94816158e+00
  ,  2.58877720e+00,  -3.28762977e-01,   2.26243032e-02,   1.35075348e-01
  , -4.10887908e-01,  -3.43006598e-01,  -5.72623828e-01,  -8.08658017e-01
  , -7.88396393e-01,   2.20913899e-01,  -9.83308708e-01,   7.17205889e-01
  ,  1.32185710e-01,   1.91352702e-01,   1.40004747e-01,   6.58759737e-01
  , -1.56077882e+00,  -9.16018438e-01,  -1.04495132e+00,  -1.05984868e+00
  , -4.97459884e-01,   7.00859505e-02,   4.62451562e-01,   9.96915215e-01
  ,  1.16405784e+00,   1.01259997e+00,   9.43433013e-01,   2.27730188e-01
  , -3.40881342e-01,   9.29038936e-01,  -2.80360448e+00,   5.50589705e-01
  , -2.61151196e+00,  -8.26736682e-01,  -1.54641900e+00,   1.80317107e-01
  , -6.90046831e-01,  -1.46701121e+00,   3.66664271e-01,   4.44792252e-01
  ,  1.33948150e+00,   1.66844984e+00,  -5.18494916e-01,   1.80964681e+00
  ,  5.64930235e-02,   8.70580970e-01,   4.86074298e-01,  -2.45538088e+00
  , -2.85145409e+00,  -4.02991915e+00,  -1.58810827e+00,   1.71674519e-01
  , -6.04129962e-01,  -7.38027088e-01,  -1.61478292e-01,   1.03685147e+00
  ,  7.89060859e-01,   1.49249922e+00,  -4.92331094e-01,  -1.97960705e+00
  , -1.48955960e+00,  -1.10275710e+00,   2.65986995e-01,  -3.26813358e-01
  , -8.03538623e-01,  -3.14155557e-02,  -2.79561271e+00,   1.32470894e+00
  ,  9.95881926e-01,   1.17706157e+00,  -8.03366486e-01,  -1.57911805e+00
  , -1.32984851e+00,  -7.98583965e-01,  -4.83624855e-01,  -6.57353586e-02
  , -1.04056753e+00,  -6.73890751e-01,  -1.41346478e+00,  -8.20874970e-01
  ,  1.10660942e+00,   4.12770111e-01,   1.32723009e+00,  -1.58996599e+00
  , -1.74717050e+00,   9.43060901e-02,  -1.52003565e+00,  -3.13974442e+00
  , -1.50292958e+00,  -5.51816600e-01,   2.92839822e-01,  -1.67669200e+00
  ,  5.56645994e-02,  -8.02535847e-02,  -3.95101394e-01,   8.96234798e-01
  ,  1.45938610e+00,  -1.35705337e+00,   1.21546613e+00,   7.81822115e-01
  , -1.30573710e-01,  -3.94734172e-01,   1.29146303e+00,  -5.61573067e-01
  , -1.49649582e+00,  -9.01839350e-01,  -1.01053732e+00,  -1.67197231e+00
  , -1.30741208e+00,   7.02050732e-01,   3.60026246e-01,   4.99542568e-01
  , -4.47527730e-01,  -1.19438953e+00,  -1.94272884e-01,  -7.21800100e-02
  ,  3.36174881e-01,  -3.40436435e-01,  -1.26680062e+00,  -9.90382183e-01
  ,  1.46742127e-01,  -1.05104333e+00,   6.77078935e-01,  -1.84898781e+00
  , -4.09588450e-01,   7.95493651e-01,  -8.62840860e-01,   2.12328499e+00
  , -1.07042745e+00,  -1.82248255e-01,  -2.36159986e-01,  -5.56399607e-01
  , -2.34490563e+00,  -2.55388853e+00,   1.33245250e-01,  -1.82093173e+00
  , -9.11159502e-01,  -2.39444896e-01,  -9.28748360e-01,  -1.43099350e+00
  , -8.61069374e-01,   1.40429919e+00,  -1.69590902e+00,   2.17877759e+00
  ,  9.32255307e-01,   7.52195711e-01,   4.35777379e-01,   7.63204754e-01
  ,  7.49736354e-01,   1.20255113e+00,  -1.52971672e+00,  -1.77998512e+00
  , -9.14044361e-01,  -2.35426652e+00,  -1.36541454e+00,   8.79223563e-02
  ,  1.05959525e+00,   1.86191271e+00,  -2.43080001e-01,  -6.74581748e-01
  , -6.68844726e-01,  -2.86234640e+00,  -9.30861835e-01,   4.53632213e-01
  ,  6.76020626e-01,   2.20546118e+00,   3.05304784e-01,  -1.45061392e+00
  ,  1.93537782e-01,  -2.72854602e-01,   5.64584865e-01,   1.22201553e+00
  ,  2.65584056e+00,  -3.11244997e-01,   4.15596029e-01,   2.34958478e-01
  ,  2.79507999e-01,  -3.37880379e-02,  -1.03136375e+00,  -2.23503545e+00
  , -2.59824221e+00,  -9.45421582e-01,  -4.90735394e-01,  -1.07702469e+00
  ,  5.22717676e-01,   1.54264785e+00,   1.23927889e+00,   1.74433463e+00
  ,  2.54483449e+00,   1.12490818e+00,   5.24313650e-01,  -9.74115071e-01
  , -1.20642997e+00,   3.86203919e-01,  -1.04613645e+00,  -1.05572621e+00
  , -8.98622014e-01,   2.65552638e+00,  -5.25792849e-01,   6.64036902e-01
  , -1.06285335e+00,   4.70403634e-01,   1.80081445e+00,  -1.00966117e+00
  ,  3.25487519e-01,  -1.93625742e-01,  -1.43183633e+00,  -4.30371463e+00
  , -1.95881267e+00,  -1.11432786e+00,  -1.34172135e-02,  -1.28192381e+00
  ,  2.48353873e-02,   6.05693713e-02,   1.77877212e+00,   1.48442693e+00
  ,  8.39467380e-01,  -9.62504021e-01,  -2.09368594e+00,   2.21492949e-01
  ,  8.99249730e-01,  -2.30149296e+00,  -3.21397376e-01,  -5.23483067e-01
  , -1.73777815e+00,  -7.74356093e-02,   2.27147063e+00,   2.34729305e+00
  ,  1.07947276e+00,   8.10869908e-01,  -1.10731898e-01,  -3.38404190e-01
  ,  1.98555381e+00,  -1.05972035e+00,  -2.17924128e+00,  -2.37520737e+00
  ,  7.53072318e-01,  -1.32480813e-01,   9.43770337e-01,   2.50536964e-01
  ,  8.79362174e-01,  -3.84922355e-01,   9.00507373e-01,   8.71231552e-01
  ,  1.79510638e+00,   3.02305353e-01,  -7.79175151e-01,  -3.83136529e-01
  ,  1.54226107e+00,   6.09172497e-01,   2.25002493e-01,  -1.24184095e+00
  ,  5.98815822e-01,   1.31836382e-01,   1.18610759e+00,   9.46464288e-02
  ,  1.29335690e+00,   3.60805024e-01,   2.32217401e+00,   1.21021669e+00
  ,  9.83976533e-01,  -9.62841685e-01,  -2.39366431e+00,  -2.86576616e+00
  ,  5.54148685e-01,   8.50069751e-02,   3.92139461e-01,  -9.72930337e-01
  ,  1.67584429e+00,   1.93934081e-01,   3.90526831e-01,   1.94532690e+00
  ,  7.11340255e-01,   5.43336030e-01,  -5.95644420e-01,  -1.04944817e+00
  , -9.26642058e-01,  -1.06462614e+00,   6.21434781e-01,  -1.08450771e+00
  , -1.16995824e+00,   3.98225693e-01,   8.58817443e-02,   6.36723702e-01
  ,  1.12557635e+00,  -4.76204378e-01,   1.09715376e+00,  -3.31263606e-01
  , -1.37290896e-01,  -7.88851700e-01,  -4.64321901e+00,  -4.96784887e-01
  ,  6.02832690e-01,  -8.86441374e-01,  -5.60820813e-01,   1.03926172e+00
  ,  4.29948902e-01,   8.37758393e-02,   1.62387962e+00,   5.16298138e-02
  ,  4.63949809e-01,  -1.09757114e+00,  -3.76675056e-01,  -8.22515223e-01
  ,  4.93275483e-01,  -7.81909520e-01,  -1.25715673e+00,  -9.39606616e-01
  , -1.58996253e+00,   4.17491414e-01,   2.49103990e-01,   1.23948716e+00
  ,  1.63507038e+00,   7.99538511e-01,   2.83322986e+00,   6.88919314e-01
  , -1.84280100e+00,  -2.19152208e+00,  -2.10621490e+00,  -1.98401203e-01
  , -1.05305113e+00,   2.58673222e-01,  -4.32397211e-01,   6.73198481e-01
  ,  4.17099645e-01,   7.18599674e-02,   1.57947065e-01,   2.11573546e+00
  , -6.92309873e-01,   1.54658795e+00,   2.41807686e-01,   6.98468748e-01
  ,  5.75775649e-01,  -5.70406220e-01,   3.86718580e-01,   1.75543702e-01
  , -1.33799471e+00,  -8.26433250e-02,   7.15587237e-01,  -1.14832630e+00
  ,  4.75798940e-02,   1.44952511e+00,   2.12138041e+00,   6.19956832e-01
  , -1.92862287e+00,  -1.84093694e+00,  -1.59998159e+00,   5.57683305e-01
  , -3.49960416e-02,   4.11709451e-01,  -3.61865791e-01,  -1.07028293e+00
  , -1.27991126e-01,   9.63193427e-02,   6.07878974e-01,  -1.90280611e+00
  , -9.34666865e-01,  -1.67743135e-01,  -1.86877335e-01,   1.47422968e+00
  , -1.00312002e+00,   1.12488800e+00,   6.92830297e-01,  -2.27550681e+00
  , -1.16471365e-02,   8.29841154e-01,   2.56735312e-01,  -7.99787028e-01
  ,  1.39272391e+00,   1.34354140e+00,   7.90984536e-01,   6.34402032e-01
  , -1.54561847e+00,  -1.41878840e+00,  -1.43528150e+00,  -7.72432633e-01
  , -2.03784220e-01,   4.46510607e-01,  -9.17351901e-01,   7.86556407e-01
  , -1.62818449e+00,   2.04164913e+00,  -2.22797366e+00,  -2.72715662e-01
  ,  7.50824819e-01,  -1.05421475e+00,  -8.32910354e-01,   2.11567595e+00
  ,  8.09986028e-01,   2.73583939e-01,  -1.22477180e+00,   2.81621279e-01
  , -7.37603138e-01,  -1.11272543e+00,  -1.28675508e+00,  -6.17533195e-01
  ,  7.22313019e-01,  -1.02633873e+00,   2.14537076e+00,   1.37207047e+00
  ,  8.35740103e-01,   1.36153685e-01,   1.44380302e+00,   1.27551952e+00
  , -1.23833106e+00,  -7.04174183e-02,   5.25722819e-01,  -8.58297883e-01
  ,  4.65421736e-01,  -7.66623138e-01,   4.20818000e-02,  -8.19264613e-02
  ,  1.39866890e+00,   1.73849769e+00,  -1.77506517e-01,   8.51355898e-01
  , -3.05686269e-01,   9.10055095e-01,  -3.40535344e-01,  -2.47488305e-01
  ,  2.27627711e-01,   5.90831558e-01,   4.40720167e-01,  -6.78128195e-01
  , -1.19561294e+00,   4.00252931e-01,   6.49562225e-01,  -4.58095279e-01
  ,  1.48278049e+00,  -6.67330503e-01,   7.01285865e-01,   3.15416486e-01
  , -5.09602678e-01,  -1.59997168e+00,   2.00505045e-01,   2.44674690e-01
  ,  1.48748946e-01,   9.88008652e-01,   5.22169449e-01,   1.08407624e+00
  , -2.07718961e+00,   1.45895261e+00,   3.30003108e-01,  -1.33444927e+00
  , -6.33735977e-01,  -9.74167567e-02,   1.67077054e+00,   3.76561877e-01
  , -1.35293010e+00,  -6.43221209e-01,   9.11937217e-01,  -7.91351567e-01
  ,  1.00826150e+00,   1.90847257e-01,  -1.14555798e+00,  -3.94677853e-01
  ,  1.34581437e+00,   1.00811792e+00,   8.18635901e-01,   2.36044644e+00
  ,  1.84467493e-01,  -8.86619848e-01,  -7.94526033e-01,  -1.17957961e+00
  , -1.41338655e+00,  -5.88829813e-01,   1.04752561e-01,   4.89034935e-01
  ,  6.70285115e-01,   4.28964541e-01,   6.66101843e-01,  -7.15842598e-01
  , -1.75210347e-01,  -6.46585427e-01,  -4.10256031e-01,   5.43317876e-01
  , -1.59997644e+00,  -1.71060897e-01,   5.10162784e-01,   1.96060049e+00
  ,  3.49333989e-01,  -3.13064300e-01,   1.59685980e-01,   3.21158031e-01
  ,  1.52975137e-01,  -1.49609630e-01,   2.92671006e-01,   2.33094100e-01
  ,  2.11891988e-02,   3.98679613e-03,  -6.41307287e-01,  -3.77938202e-01
  , -5.04789545e-01,  -9.98230187e-01,  -1.61419661e+00,  -1.40921791e+00
  ,  7.95783440e-01,  -1.35194101e-01,   2.27953270e-01,  -1.72236836e+00
  , -6.62593167e-01,  -1.63001274e+00,  -1.31171376e+00,   7.64862515e-01
  ,  9.99681459e-02,  -9.94754033e-02,   1.69793956e-01,  -2.13911167e-01
  ,  1.10260361e-01,  -3.90584570e-01,  -1.13300172e+00,  -5.61844975e-01
  ,  9.46033622e-01,   1.31571101e+00,  -1.48479290e-01,  -1.32167273e-01
  , -2.09860132e+00,  -3.23016674e+00,  -1.81551262e+00,  -3.27926028e+00
  ,  9.43483993e-01,  -4.58760182e-01,  -8.18194446e-01,   6.67152817e-01
  ,  9.29108961e-01,  -2.63119257e-01,  -6.86874137e-01,   6.67268932e-01
  ,  1.66976833e+00,   2.36575174e-01,  -1.08524962e+00,  -3.23172711e-01
  ,  1.85448639e-01,   6.82003108e-01,  -1.06760602e+00,  -1.73505332e+00
  , -1.51840844e+00,   5.35552875e-01,  -1.73959055e-02,  -5.96163384e-01
  , -5.37969492e-01,  -2.29655599e-01,   1.27331273e-01,  -6.50734954e-01
  , -1.13318046e+00,   1.05194247e-01,  -4.11423645e-01,   8.72516117e-01
  , -2.54625783e-01,   1.37597868e+00,   3.28501184e-01,  -1.43006577e+00
  , -1.27487287e-01,   7.79751069e-01,  -1.44029676e-01,  -3.31017208e-01
  , -7.33014619e-01,   6.16594565e-02,  -1.33098374e+00,   1.90328009e-02
  ,  3.62448185e-01,   1.46961117e+00,  -2.14370421e-01,  -9.29673870e-01
  ,  2.00311108e-01,  -1.53640100e+00,  -2.65655723e+00,  -1.29261284e+00
  ,  1.55294032e+00,  -1.21271196e+00,  -2.19806796e-01,  -7.37609383e-01
  , -1.16398809e+00,   2.45140979e-01,   1.48305512e+00,  -5.94507320e-01
  ,  7.16054196e-01,  -6.56845200e-01,   1.59563891e+00,  -4.29555369e-01
  ,  1.61213199e-01,  -9.30155249e-01,  -1.08976563e+00,  -6.38671846e-01
  , -1.05241909e+00,  -1.88371286e-01,  -9.81373601e-01,   7.69081445e-01
  , -1.52146283e+00,  -7.55967914e-01,   2.23914212e-01,   7.63433397e-01
  , -2.68608204e+00,  -1.31043413e+00,   1.01946650e+00,  -3.08489040e-01
  ,  1.02297208e-01,  -3.87055438e-01,   2.63016126e-01,  -6.50544605e-01
  ,  4.67803394e-01,   3.41795427e-02,   3.96015439e-01,  -2.87318938e+00
  ,  3.48429970e-01,  -2.50670820e-01,  -2.09689325e+00,  -8.69339944e-02
  , -6.27101334e-01,   9.41658805e-01,  -1.59894118e+00,  -2.41953752e+00
 , -7.96645255e-01,   2.15412638e-01,  -2.52348860e+00,   4.41375430e-01
  ,  1.37593860e+00,  -2.88572584e-01,  -9.02658928e-02,   6.29188497e-01
  ,  7.64922927e-01,   9.24535403e-01,   1.39427216e+00,  -6.72057457e-01
  , -1.05707296e+00,   1.28853946e+00,   1.15891568e+00,   2.02582359e-01
  ,  2.39968148e-01,  -1.70540110e+00,   3.53546299e-01,  -1.61426806e+00
  , -1.54864862e+00,  -2.69263007e-01,  -6.59106613e-01,  -8.18066066e-02
  , -3.08273567e-01,   1.49211659e-01,  -8.30568051e-01,   1.79989928e+00
  , -2.40966637e+00,  -8.37777978e-01,  -1.63361990e+00,  -7.10307904e-02
  , -1.36971023e+00,  -9.81161385e-01,  -9.49238968e-01,  -8.85353107e-01
  , -1.54046029e-01,   1.49196686e+00,  -1.07755766e+00,   1.48066859e-01
  ,  6.61956503e-01,   1.34655860e-01,  -9.33694137e-01,   1.32707211e-01
  , -2.34104252e-01,  -2.78682059e+00,   1.11552465e+00,  -4.85954736e-01
  , -3.07600946e-01,   7.48561570e-01,  -1.36149636e+00,  -1.09486111e+00
  ,  8.39764562e-01,   8.84624029e-01,  -1.79192321e+00,  -3.73952064e-01
  ,  2.44942651e-01,  -3.23347533e-01,   4.63360721e-02,  -1.44661212e+00
  , -1.15838319e+00,  -1.01549091e+00,  -4.40513440e-01,   1.88570736e-02
  ,  1.46323161e+00,  -1.81737569e+00,  -2.07359284e+00,  -4.93265346e-01
  , -2.37323225e-01,   2.95813341e-01,   1.12980552e+00,   7.46063865e-01
  ,  8.19764412e-01,  -3.77635429e-01,   8.05534715e-01,   7.06999378e-01
  ,  7.61875007e-01,   1.34368363e-01,   1.55495799e+00,  -1.06526185e-01
  ,  5.57774005e-01,  -1.46186864e+00,  -9.57177459e-01,   2.57291713e-01
  , -4.32729044e-01,  -8.62308047e-01,  -2.17619846e-01,   2.49879574e+00
  , -8.36235519e-01,  -7.39631498e-01,   2.40258800e+00,   8.40946925e-01
  ,  8.54521996e-01,   1.14750954e+00,  -1.53012442e+00,  -1.16981860e+00
  ,  3.43605366e-01,  -2.51782416e+00,  -5.46779388e-01,  -9.14376816e-01
  ,  1.10915476e+00,   2.84235637e-01,  -5.08204449e-01,  -5.70540093e-01
  ,  6.70295150e-01,   1.68837107e-01,   7.92917800e-01,   2.45446355e-01
  ,  8.69912121e-01,   4.61032577e-01,  -1.59670720e+00,  -4.43418831e-01
  , -2.10450315e-01,   9.85943625e-01,   1.01258862e+00,   7.70958976e-01
  ,  2.61194009e-01,   7.31513158e-01,  -1.98206888e+00,  -2.77398021e-02
  ,  1.87833674e+00,  -7.79148483e-01,  -1.71228629e+00,   7.79204572e-02
  , -2.34731377e-01,   1.93280643e-01,  -1.98065203e+00,  -6.87424172e-01
  , -1.38228196e+00,  -2.54351250e-01,   6.03066302e-03,  -1.57422585e-01
  ,  1.20459430e+00,   1.37341216e-01,   4.73073049e-01,   3.51448747e+00
  , -1.34640189e+00,  -7.48919963e-01,  -5.54600851e-01,  -6.09911428e-01
  ,  7.78252480e-01,   4.95713602e-01,  -1.21506487e-01,  -2.98986129e-01
  ,  2.74227048e-01,  -6.41414284e-01,   1.18374703e+00,  -1.75203009e+00
  , -2.19876057e+00,  -1.70525691e+00,  -5.49910886e-01,  -8.90508065e-01
  , -1.44167201e+00,  -1.34890354e+00,  -1.97021185e+00,  -1.68486002e+00
  , -1.50818677e+00,  -1.49105150e+00,  -1.23294155e+00,  -1.04757955e+00
  , -2.16681887e+00,   1.44567921e+00,  -7.67720124e-01,   4.47890203e-03
  , -1.64013020e-01,  -1.65554505e+00,   7.43071858e-01,   4.12481152e-02
  , -2.27293288e-01,  -4.57639435e-01,   1.47406360e+00,  -3.71049022e-02
  , -1.98956398e-01,   8.67387333e-01,   1.92980754e+00,   9.69670098e-01
  , -3.26453008e-02,  -6.65075842e-01,   5.69933354e-01,   4.57656645e-01
  , -1.27991431e+00,  -9.65202935e-01,  -1.81772631e+00,  -1.45518783e+00
  , -1.11829797e+00,  -2.14723314e+00,   3.30778006e-01,  -5.55640716e-01
  , -1.43166495e-01,  -4.64658242e-01,   1.60338173e+00,   3.12440249e-01
  , -4.89123701e-01,   9.14117620e-01,   7.68774068e-01,  -7.58414846e-01
  , -9.46131686e-01,   5.58922355e-02,   4.70255386e-01,   1.14456934e+00
  ,  5.27370237e-02,  -4.95455362e-01,   9.59564954e-01,  -1.76393648e-01
  ,  1.16990507e+00,  -3.15664483e-01,   1.16594802e+00,  -8.65307899e-01
  ,  1.38005109e+00,  -2.14487709e-01,   7.96708136e-01,   1.94012422e-01
  ,  6.75507664e-01,   1.39035143e+00,   7.14701576e-01,   1.75095626e-01
  ,  1.89163754e+00,   1.07193563e+00,   4.73315678e-01,  -7.88602530e-01
  , -9.22731922e-03,   1.26599652e+00,  -5.59023979e-01,  -4.07009618e-01
  ,  5.98975949e-01,   8.56286454e-02,   5.01234835e-02,  -5.71201901e-01
  ,  2.44972212e-01,   2.18963576e+00,   2.57193790e-01,  -6.50513226e-01
  ,  5.79085674e-01,   1.63800685e+00,  -6.53996501e-01,   6.32593598e-01
  , -4.13784374e-01,  -9.44157707e-01,   1.85715695e+00,   1.68208064e+00
  ,  1.51230397e+00,   9.17599352e-01,   5.72115088e-01,   1.07047849e-01
  ,  9.68794579e-01,  -1.39925397e+00,   2.58640217e-01,   1.67876613e+00
  , -1.80046097e+00,  -3.08225087e-01,  -2.42827274e-02,  -1.81047368e-01
  ,  2.03929945e+00,   6.67629513e-01,   3.38602043e-01,  -4.45811951e-01
  , -1.04156797e+00,   1.53730270e+00,   1.05276259e+00,   1.11171846e+00
  ,  1.23981435e-01,   4.38153380e-01,   9.79157986e-01,   8.27229982e-01
  , -5.83444959e-01,   3.55622007e-02,   3.43332234e-01,  -3.95911312e-01
  ,  1.73472032e+00,  -2.85989755e-01,   1.38515355e+00,   1.25398353e-01
  ,  2.51268650e+00,  -1.04776760e+00,   7.37032845e-01,  -6.27445460e-01
  ,  2.51947111e+00,   1.13978762e+00,   1.02822332e+00,  -1.16671753e+00
  , -3.49766456e-01,  -3.82671708e-01,  -1.78113111e+00,   2.93704041e-01
  , -8.90242544e-01,   2.19070829e-01,   6.95095656e-02,  -2.08773453e-01
  , -1.52996003e+00,  -6.46088232e-01,  -1.07935979e+00,   2.59745609e-01
  ,  7.50638797e-01,   1.38719496e+00,   7.79743723e-01,   8.16566853e-01
  ,  2.43683017e+00,   7.76578461e-01,  -2.32474976e-01,   3.22012018e+00
  ,  9.53165321e-01,   9.96834857e-01,  -5.06521782e-01,   1.98097347e+00
  ,  7.69162904e-01,  -1.65399660e-01,   7.02901077e-01,   1.08450299e+00
  , -1.35398914e+00,   6.60512922e-01,   9.91993114e-01,   1.78587157e+00
  ,  3.30729407e-01,  -2.39860139e+00,  -1.17666020e+00,   8.56502669e-02
  , -1.29904916e+00,  -7.11221013e-01,   9.67226063e-01,   9.23220495e-01
  ,  5.70765789e-01,   5.27391791e-01,  -3.91181206e-01,   9.07585048e-01
  , -9.14524363e-01,  -4.56090184e-01,  -4.28674414e-01,  -7.09337587e-01
  ,  2.36632443e-01,   9.65612864e-01,   8.43282363e-01,   9.34776956e-01
  ,  3.20017267e-01,   2.85924011e-01,   4.44128401e-01,   5.47928294e-01
  ,  7.81778969e-01,  -1.48195120e+00,   5.33483411e-01,  -1.80371108e-01
  , -1.41472756e-01,  -9.95014970e-01,  -5.64272325e-01,   1.67200947e+00
  , -1.80047006e-03,   6.69914951e-01,   1.53194746e-01,  -2.01235717e+00
  ,  1.75173516e-01,   1.18566899e+00,   3.28819671e-01,  -6.17014974e-01
  , -2.47636243e+00,  -3.66073196e+00,  -7.82792334e-01,  -4.91771962e-01
  , -1.66002376e+00,  -3.37369772e+00,  -9.16312493e-01,  -2.49061896e+00
  , -9.65339972e-03,  -2.29396527e-01,   5.76435385e-01,   3.54560951e-01
  ,  2.03715923e-01,  -9.33825072e-01,  -1.10194195e+00,  -1.13297418e+00
  ,  6.80038826e-01,  -6.94685274e-01,   4.86904186e-01,  -1.69778128e+00
  , -5.46126251e-01,  -5.53281147e-01,  -7.71349626e-01,   1.93506042e+00
  , -1.98372090e+00,  -6.19753106e-01,  -9.13160981e-01,  -1.90752285e+00
  , -1.41988752e+00,  -1.05905736e+00,  -2.94378736e+00,  -1.32533648e+00
  , -1.04851073e+00,  -3.57028818e+00,  -2.95144757e+00,  -8.59711799e-01
  , -4.30933926e-01,  -4.65109714e-01,   6.12848234e-01,   1.71116623e+00
  ,  2.51915521e-01,  -6.19635812e-01,  -1.15169345e+00,   1.24593693e+00
  , -1.99318382e+00,  -7.15303087e-01,  -1.36851506e+00,  -3.98846374e-02
  ,  9.49138655e-02,   3.01674297e-01,   1.35854841e+00,  -6.10693842e-02
  , -1.43315932e+00,   1.62450776e-01,  -2.02836178e+00,  -4.60459336e-01
  ,  9.39340597e-01,   1.37473583e-01,  -9.73283775e-01,  -3.07575746e-02
  , -1.42241059e+00,  -1.60242909e+00,  -4.94004995e-02,  -1.66708803e-01
  ,  2.70594560e-01,   9.81697030e-02,   6.74529681e-01,   1.55390396e-01
  , -1.20178029e+00,   1.45012955e+00,  -1.01733304e-01,  -7.18298748e-01
  ,  1.38162796e+00,   7.12042013e-02,  -1.10832641e-01,   1.02677343e+00
  , -1.01468645e+00,  -3.69120577e-01,   4.22006119e-01,  -1.66135944e-01
  ,  6.12548817e-01,  -1.64682430e-01,  -1.06754271e+00,   1.13554757e+00
  , -1.16409254e-01,   4.50296811e-01,   7.69059677e-01,   8.00244750e-01
  ,  5.45092095e-01,  -1.16929505e+00,  -1.81514965e+00,  -1.80053583e+00
  , -7.17473014e-01,  -9.88861342e-01,  -1.12128480e+00,   7.89251776e-04
  ,  3.14430106e-01,   3.05978316e-01,  -1.29964183e+00,   3.19081498e-01
  , -7.52857164e-01,   1.45980792e+00,  -1.25604577e+00,  -5.43902866e-01
  , -8.18225592e-01,   3.62907493e-01,  -6.01364370e-01,  -1.47851329e+00
  , -2.05417399e+00,  -4.05957847e-01,  -1.83545762e+00,   6.93291388e-01
  , -1.28301774e+00,   1.83229489e+00,  -1.02942618e-01,   4.38770388e-01
  , -1.07126698e+00,  -5.93186359e-01,  -7.14683483e-01,  -2.03909543e+00
  , -1.95777108e+00,  -1.00846674e+00,  -9.63835282e-01,   3.97588505e-01
  , -4.76773638e-01,  -4.75181600e-01,  -2.10763864e-01,  -2.15001685e+00
  , -2.40083578e+00,   7.93699309e-01,  -1.54564967e+00,  -5.26179251e-01
  ,  4.83516072e-01,   1.06883760e+00,   5.60594568e-01,  -6.96539802e-01
  , -5.44536519e-01,  -4.78624201e-01,   3.33742598e-01,   1.63855937e+00
  , -2.39548749e-01,   2.55349227e+00,   7.82685113e-01,   1.09429278e+00
  , -8.12130286e-01,  -4.25389765e-01,  -7.91359752e-02,   5.31365763e-01
  ,  5.31781161e-01,  -1.00114320e+00,   3.70825979e-01,   1.95991892e-01
  ,  7.39733654e-01,   2.18142090e-01,  -2.76277914e-01,  -1.11898563e+00
  ,  1.48014486e-02,   7.20138630e-01,   1.99708803e-01,  -3.71228121e-01
  ,  1.20389658e+00,  -8.67464708e-01,  -1.73903252e+00,  -1.45186318e+00
  , -2.51513640e+00,   1.19420587e+00,   2.05950683e-01,   3.42150212e-02
  ,  6.58104670e-01,   1.06908765e+00,   5.85563517e-01,  -2.25860797e-01
  , -8.03787633e-01,  -1.83393336e+00,   4.42915777e-01,  -1.53118789e+00
  ,  9.06078491e-02,  -5.94700025e-02,   1.20299281e+00,  -1.25030551e+00
  , -3.20140886e-01,  -2.36195893e-01,  -1.47773805e+00,  -6.07538963e-01
  ,  5.63480817e-02,  -3.61616101e-01,   1.12312381e+00,   1.19134443e+00
  ,  6.07553145e-01,   1.35680767e-01,  -4.69460491e-01,   5.29194901e-01
  ,  5.79580781e-01,   3.54030406e-01,   1.05939937e+00,  -1.16106195e+00
  , -6.43097916e-01,  -1.11509957e-01,   5.57269031e-01,  -1.02054472e+00
  , -2.16773239e+00,  -7.09134607e-01,  -6.59171071e-01,  -1.42610614e+00
  , -3.20355239e-01,   6.89740140e-01,  -2.40015490e-01,  -3.96607417e-01
  ,  3.51235556e-01,   1.83079113e-02,  -1.13684452e+00,  -9.83227028e-01
  , -1.76989896e+00,  -1.59869185e+00,  -8.42354698e-01,  -2.16498593e+00
  ,  6.48400639e-01,   5.07014301e-01,   1.57734272e-02,   3.34343507e-01
  , -8.68866757e-01,  -1.37916978e+00,  -1.25226514e+00,   3.83556460e-01
  , -7.83802403e-01,  -1.71238873e-01,  -1.69122615e+00,  -1.42725287e-02
  , -1.97000973e+00,   1.57505654e-02,  -5.78052981e-01,  -2.31062335e+00
  , -1.75460646e+00,   1.23574196e+00,  -1.83447547e+00,  -2.44627784e-01
  ,  1.97660255e-01,   7.29019402e-01,   3.50061328e-01,  -6.65904173e-01
  ,  7.13245275e-01,  -1.92645827e+00,  -1.59853950e+00,  -1.52448950e+00
  ,  8.03010454e-01,  -8.00641213e-01,  -9.13350409e-02,  -2.27799301e-02
  ,  8.40170718e-01,   3.60243512e-01,  -5.23852440e-01,   1.16034678e+00
  ,  1.16687335e+00,  -4.36666145e-01,  -4.38198990e-01,  -2.52157830e+00
  , -1.06902559e+00,   1.12472187e+00,  -1.29257771e+00,  -2.33660048e+00
  ,  1.45637471e+00,   4.51564768e-01,   1.50784015e+00,   3.27317504e-01
  , -5.76293826e-02,   8.95747634e-01,   2.06155618e+00,  -3.23166894e-01
  , -2.17002729e+00,  -1.19171291e+00,  -1.45725236e+00,  -1.59464186e+00
  ,  5.54258951e-01,   2.80967844e-01,  -1.94760894e-01,  -1.41868723e+00
  ,  8.67184717e-01,  -3.67200694e-01,  -2.08459742e-02,  -1.44384454e+00
  , -7.06748859e-01,  -1.24958397e+00,  -1.02061134e+00,  -2.16024034e+00
  , -5.07119880e-01,   8.38913078e-01,   1.70548695e+00,   1.63598225e-01
  , -1.00236676e+00,  -1.35920536e+00,  -2.97211414e-01,  -9.55553665e-01
  ,  3.80262949e-01,  -1.26995189e+00,  -5.94608133e-01,  -2.50075298e-01
  , -1.87959942e+00,  -5.27755595e-01,  -6.76876234e-01,   9.05186339e-01
  , -7.30294871e-01,   8.35688270e-01,   1.82782354e+00,  -1.66623569e+00
  , -2.93223926e-01,  -8.28093894e-01,  -6.88101164e-01,  -1.91584147e-01
  ,  7.04639878e-01,  -9.32871276e-01,  -1.37910095e+00,  -3.32449869e-01
  , -7.64188802e-01,   1.26340239e+00,  -6.35096338e-01,  -2.12422777e-01
  , -8.96372748e-01,  -2.03671847e-01,   2.10932700e+00,   4.82981175e-01
  ,  4.79213498e-01,  -3.32751349e-02,  -8.00729048e-02,   3.63052912e-01
  ,  8.73541099e-01,  -7.60880328e-01,  -4.02475529e-01,  -3.28008877e-01
  , -2.93327858e-01,  -1.38641866e+00,   1.13531535e+00,  -1.41777337e+00
  , -2.84404712e-01,   4.53279806e-01,  -5.60815461e-01,  -7.92862348e-01
  , -4.03477776e-01,  -5.99469156e-01,   8.40435786e-01,   1.48327258e+00
  ,  1.78543133e-01,   4.60593168e-01,   1.35532371e-01,  -2.74424618e-01
  , -1.71948542e+00,   1.20507850e+00,  -7.93666525e-01,   8.41128811e-01
  ,  1.14172592e+00,  -7.75575499e-01,   1.81971414e+00,   1.49006641e+00
  , -1.16146027e+00,  -6.69181906e-01,  -1.02908362e+00,   2.10798765e+00
  , -5.77901301e-01,   9.05821715e-01,  -8.08384336e-01,  -7.55441255e-01
  ,  9.65849686e-01,  -6.06943369e-01,  -8.14844137e-01,   3.27035541e-01
  ,  1.94976282e+00,   1.72523270e+00,   1.21131196e+00,   1.57818101e+00
  , -1.38422753e+00,   1.36831288e-01,  -1.73171905e-01,   1.79224541e+00
  ,  9.70284250e-01,   8.04664334e-01,  -8.23519682e-01,  -1.16559495e+00
  , -6.20537098e-01,  -7.95956274e-01,  -7.60430388e-01,  -9.27412426e-02
  , -1.17694713e+00,   1.21381066e+00,   3.35747101e-01,   2.63902618e+00
  ,  1.04606872e+00,   2.65084766e-01,  -1.41316740e-01,   4.17184064e-01
  ,  1.56937848e-01,   1.05866127e-01,   7.23572689e-01,  -1.17025879e-01
  , -6.20399546e-02,   4.83051409e-01,   3.77607333e-01,  -6.15061022e-01
  ,  1.49423702e+00,   6.71248241e-01,  -1.28642615e+00,   2.68746814e-01
  ,  4.28965907e-01,  -8.18035026e-02,  -9.25170142e-02,   1.88369580e-01
  ,  1.19361678e-01,   7.58935170e-01,   1.40161912e-01,  -1.95818059e-01
  ,  7.85531099e-02,  -2.67502866e+00,  -1.19112037e+00,  -1.10044426e-01
  ,  1.86886821e+00,   1.39835634e+00,   9.32916584e-01,   4.77219844e-01
  ,  1.22671944e+00,  -7.75276788e-01,   7.47159664e-03,   1.39812376e+00
  , -2.61517598e-01,  -1.00037868e-02,   1.30752168e+00,   4.01152192e-01
  ,  5.87816803e-01,   4.07675790e-01,  -8.43002302e-01,   7.74709070e-01
  ,  9.36022737e-01,   1.24235552e+00,  -1.95434258e-01,   5.96801602e-01
 , -1.54310128e+00,   1.38558720e-02,  -7.65405587e-01,  -9.84767462e-01
  ,  9.02607717e-01,  -8.04916693e-01,  -1.23043495e+00,  -4.33984276e-02
  ,  4.09462096e-01,   7.84450322e-02,   6.20264819e-01,  -1.46888155e+00
  , -1.02979444e+00,  -7.78454420e-01,  -1.17251192e-01,  -1.03299678e+00
  , -1.21131457e+00,   2.67602390e-01,  -2.50280998e-01,  -1.62167466e-01
  ,  4.55417051e-01,  -2.28030233e+00,  -8.07714902e-01,   1.98861512e+00
  , -5.41056490e-01,   2.89759018e-02,  -1.07448349e+00,   3.92702416e-01
  ,  1.73102009e+00,   1.13337607e-01,   1.33032523e+00,   3.01204919e-01
  ,  1.54037896e+00,  -5.00391987e-01,   5.77461261e-01,   1.65733520e+00
  , -5.40580365e-01,  -1.70708013e+00,  -1.36687312e+00,   1.79185325e+00
  , -1.23104306e+00,  -6.73368041e-02,  -1.18696168e+00,   1.14300309e+00
  ,  1.69522560e+00,   2.65728231e-01,   6.50351499e-01,  -1.75363307e-02
  , -1.09917331e+00,  -2.07168879e+00,   2.61945608e-01,  -1.55069365e+00
  , -3.53909378e-01,  -2.73759900e-01,   1.14628818e-01,   9.08023027e-01
  , -9.76494981e-01,  -7.23396633e-01,  -4.98760975e-01,  -4.22011621e-01
  , -7.12060023e-01,   8.55503462e-01,  -7.14815525e-01,  -1.32982191e+00
  , -9.24414779e-01,   1.97377515e-01,   7.95046501e-01,   2.80406607e-01
  ,  6.42868035e-01,  -1.43636017e+00,   1.48690292e+00,  -2.43226314e-01
  ,  1.19993809e+00,   1.26111037e+00,   5.47190914e-01,  -1.22291455e+00
  , -1.00811423e+00,  -1.19916071e+00,  -2.33799645e-01,  -6.05116159e-01
  ,  3.34595671e-01,   1.25246016e+00,  -1.02168818e+00,   4.74759406e-01
  ,  4.18483661e-01,  -9.74407400e-01,  -1.03375787e+00,   1.22624975e-02
  ,  6.05947190e-01,   5.76551149e-02,   3.26044758e-01,  -1.26771728e+00
  ,  1.02627201e+00,  -2.41527442e-01,  -4.34717710e-01,  -5.50731757e-01
  , -3.93271683e-02,  -5.80167922e-01,   5.21712146e-01,  -3.52188216e-01
  , -8.63737430e-01,   2.34765355e+00,  -3.35542527e-01,  -6.89772678e-01
  ,  1.15487254e+00,  -1.94061910e+00,  -1.35577093e+00,   1.11268234e+00
  ,  5.17742763e-01,  -2.59883922e-02,  -1.00048389e-01,   2.50495433e+00
  ,  1.14221372e+00,  -3.72203902e-01,  -3.84095450e-01,   1.33689294e+00
  , -3.46587543e-01,   4.17348599e-01,  -3.42963951e-02,   3.46860247e-01
  , -7.92049975e-01,   7.09403480e-01,  -1.20287551e-01,   2.04831396e+00
  ,  1.72043583e+00,   1.32385277e+00,  -1.22801203e-01,   4.52339639e-01
  ,  7.53601756e-01,   1.18531775e+00,   1.13135257e-01,   4.40933030e-01
  ,  2.98627336e-01,   1.52582551e+00,   1.21719445e+00,   3.88933296e-01
  , -1.54390071e+00,   1.03584995e+00,   1.10705202e+00,   1.49646026e+00
  , -2.77225267e-01,   7.85840383e-01,  -3.15588702e+00,   9.64314436e-01
  ,  4.91318799e-01,   7.71636255e-01,  -5.77855825e-01,   1.81775018e-01
  , -9.88426837e-01,  -1.04904133e+00,   1.47128196e+00,  -2.35915672e-01
  ,  6.62496333e-02,   2.21102049e+00,   4.26444753e+00,   6.18329424e+00
  ,  3.54182156e+00,   2.52211420e+00,   3.61891449e-01,   8.95089232e-01
  ,  3.03029182e+00,   1.45104941e+00,   7.91955551e-01,   2.06429299e+00
  , -1.28418503e+00,   6.24593548e-01,   1.43247625e+00,  -1.19149853e-01
  , -2.33409963e-01,   3.91845740e-01,   2.23506598e-01,   9.95147575e-01
  , -6.41330693e-01,   9.29788409e-01,   2.24726877e-01,  -3.57355232e-01
  ,  2.43827791e+00,   1.19957507e-01,   2.43386624e-01,  -6.09934506e-01
  ,  1.30591587e+00,   8.97505811e-02,   2.92001886e-01,  -5.49457701e-01
  ,  6.75991184e-01,  -6.82638441e-02,   1.10786994e-01,   1.97851586e+00
  , -1.28714604e-01,   1.37623517e+00,   6.30199556e-01,   3.86267591e+00
  ,  2.36805296e-01,   2.14220662e+00,   1.54406311e+00,   2.77719609e-01
  ,  2.85787875e-01,   5.94397244e-01,   1.61052756e-01,   1.31299456e+00
  , -1.12453759e+00,   2.19990778e+00,   1.86766580e-01,   5.85824995e-01
  ,  4.29884330e-01,   9.22828196e-01,  -2.59472612e+00,  -8.07646578e-01
  , -9.42645391e-01,  -2.79251206e+00,  -3.75436174e+00,  -3.29374381e+00
  , -2.91407788e+00,  -5.95274234e-01,   1.72322605e-01,   1.71880962e+00
  , -1.54362595e+00,   6.54065154e-01,   1.32948388e+00,   8.25522356e-02
  ,  3.72047543e-01,  -5.65323180e-01,   1.09049885e+00,  -4.36982803e-01
  , -9.53033552e-01,  -1.22354272e+00,  -9.30768485e-01,   6.85249355e-02
  , -1.02428492e-01,   4.57312954e-01,  -5.39785239e-01,  -5.97629481e-01
  ,  7.21536983e-01,  -2.57825281e-01,   5.35599387e-01,   3.96642190e-01
  , -1.55956502e+00,  -1.36738573e+00,  -1.39686150e+00,  -2.12816326e-01
  , -5.79808474e-01,  -1.27278971e+00,  -7.20738876e-01,  -1.08967007e+00
  , -7.55415361e-01,  -1.36346605e+00,  -4.53095299e-01,  -9.74281740e-02
  ,  1.65265522e+00,   9.86824897e-01,  -5.31083278e-01,   4.85450748e-01
  ,  2.31504848e-01,   3.38740231e-02,   5.91837717e-02,  -1.08431403e+00
  , -5.83524511e-01,  -1.81024800e-01,  -9.25320503e-01,  -7.57461937e-01
  , -1.48077642e+00,  -1.48971242e+00,  -2.66414412e-02,  -1.28854054e+00
  ,  1.36857938e-01,  -2.82367640e+00,  -1.64975254e+00,  -3.71858122e-01
  ,  8.02927785e-01,  -5.22809582e-01,  -1.47964661e+00,   1.33624097e+00
  , -1.53257659e+00,  -6.95894292e-01,  -1.55244836e+00,  -3.06060635e-01
  ,  1.29824344e+00,   1.22672660e+00,   6.98033219e-01,  -1.53609789e-02
  , -2.87925730e-01,  -5.02974184e-01,   2.17638064e-01,  -1.40329279e+00
  ,  1.86652898e-01,   9.11887000e-01,  -3.53889759e+00,   3.53098602e-01
  , -4.74094630e-01,   5.40798241e-01,  -1.62906337e+00,   1.54039542e-03
  ,  6.60230152e-01,  -2.10889935e+00,  -1.60742936e+00,  -7.65266270e-01
  , -1.02384996e+00,  -9.25536808e-02,  -1.37219385e-01,  -7.85315333e-01
  , -1.56020362e-01,  -5.44540075e-01,  -3.67837567e-02,   4.01115802e-01
  , -5.07109263e-01,   7.17662736e-01,   2.01037172e+00,  -9.29198216e-01
  ,  1.11160948e+00,  -9.26052443e-01,  -1.93730183e+00,   3.14852335e-01
  ,  9.41628937e-01,   4.01316648e-02,  -1.38677255e+00,  -8.53643486e-01
  ,  1.22186951e-01,  -9.84449399e-01,   1.87330433e+00,  -9.64510069e-02
  , -5.51240115e-01,  -1.13829012e+00,  -2.15754948e+00,  -1.55775173e+00
  ,  4.75143645e-01,  -4.15472946e-01,  -1.03138713e+00,  -3.78184948e-01
  , -2.96903355e+00,  -2.13420548e+00,   1.33060649e+00,  -1.41091652e-01
  ,  4.71194917e-01,  -4.67120617e-01,   1.24439350e-01,  -3.61792878e-01
  , -1.99464092e-01,  -1.10720489e+00,  -2.74012174e-01,   7.51708713e-01
  , -1.97895368e+00,   6.82247986e-01,   5.78174778e-02,   1.62663404e-01
  , -7.94721870e-01,  -8.99293683e-01,  -9.05512833e-02,   1.15959884e+00
  ,  1.52534326e+00,  -3.75580260e-01,  -2.64028006e-01,  -1.53924787e+00
  , -1.18643638e+00,  -2.19647392e+00,  -1.16891541e+00,  -1.25350418e+00
  , -1.46998229e+00,   9.69616431e-01,   7.21974121e-02,  -1.19449639e+00
  ,  1.75498397e+00,  -6.90191519e-01,   3.03615779e+00,   1.06683967e+00
  , -7.74364834e-01,   1.87828997e-01,  -2.43655359e+00,   4.29150339e-01
  ,  1.50302496e+00,  -4.56112103e-01,  -6.32915781e-01,   1.18157840e+00
  ,  7.78998595e-01,   1.49525791e+00,   8.72337599e-01,  -4.47775849e-01
  ,  3.60860765e+00,  -4.56279416e-01,  -1.22999795e+00,   1.13324535e+00
  , -2.16158672e+00,   1.70959214e-01,   3.37929525e-01,   1.69327634e+00
  ,  2.50369648e-01,  -1.44652815e-01,   2.76559678e-01,   1.64735275e+00
  ,  2.92062744e-01,   6.35825084e-01,  -3.02119614e-01,  -1.84338793e-02
  , -4.31172351e-01,   7.60719700e-01,  -7.39802890e-01,  -1.93327743e+00
  , -6.32314409e-01,   6.90411499e-01,   3.30029630e-01,   1.57616395e+00
  ,  5.97386552e-01,   1.67162577e-01,   5.76274379e-01,   2.31811176e+00
  ,  1.27840062e+00,   1.78656326e-01,   9.19121699e-01,  -1.31531158e+00
  , -6.45046546e-01,  -4.40591492e-01,  -1.05779067e+00,  -8.27236843e-01
  , -1.62483277e+00,  -6.23579847e-01,   1.27003986e+00,   2.74139054e-01
  , -2.74759438e+00,  -1.04659905e+00,  -1.17928544e+00,   1.18320709e+00
  , -9.07478772e-01,   1.38126235e-01,  -1.77954749e-01,   2.70809295e-01
  , -5.41844983e-01,   9.78390502e-01,   7.20533263e-01,   8.45139073e-01
  ,  1.23223692e-01,   2.35114399e+00,   8.18582377e-01,  -6.40888823e-01
  ,  9.63011360e-01,   2.28039538e+00,  -2.87410625e-01,  -6.69443508e-01
  ,  5.37472654e-01,  -8.28151457e-01,  -2.03498451e+00,  -7.37806780e-01
  ,  1.66851802e-01,  -1.05926989e+00,   1.60697181e+00,  -8.15234950e-01
  ,  1.20595091e+00,   4.53884541e-01,  -1.81382042e+00,   5.77930857e-01
  , -8.65593610e-01,   8.65505794e-01,   1.58604432e+00,  -7.39319541e-01
  ,  1.40236922e-02,   4.31093058e-01,  -9.84189771e-02,  -7.78744661e-01
  ,  3.13896153e-01,   8.97231437e-01,  -4.79827209e-01,  -5.46818412e-01
  ,  3.64931645e-01,  -7.25137477e-01,   1.18630628e+00,   2.53609313e+00
  , -4.96837780e-01,  -5.97974914e-01,  -8.47444534e-01,  -1.09882633e+00
  ,  8.06882292e-01,  -6.81260887e-01,  -1.15509466e+00,   2.46602580e+00
  ,  1.30538736e+00,   1.55573730e+00,   2.25595402e-01,   5.96012497e-01
  , -6.54845421e-01,   3.15456281e-03,  -1.44899605e+00,   4.10847410e-01
  , -5.90442014e-01,  -5.76850081e-01,   1.78625932e-01,  -7.42454038e-01
  ,  2.86150797e-01,   3.15456857e-01,   1.32973537e+00,   4.91018697e-01
  , -4.87791214e-01,   3.17140998e-01,   1.28653854e+00,  -1.36369778e-01
  , -1.99371710e+00,   1.24980065e-01,   2.19100253e-01,  -3.90808607e-01
  , -1.08500980e+00,  -2.88815393e-01,   3.67166007e-01,   2.10116569e+00
  ,  2.28104386e+00,   1.35101031e-01,   1.45158543e+00,  -1.53511808e+00
  ,  1.08258815e+00,   2.35886321e-01,  -5.65920902e-01,  -2.62959607e-01
  , -1.50259545e+00,   1.61460710e-01,   2.16272881e+00,  -3.71749082e-01
  , -1.52894568e+00,   1.65048493e+00,  -6.92740929e-02,   2.95320719e-01
  , -5.13365424e-02,   8.24793372e-01,   7.87800452e-01,  -1.23727329e+00
  , -5.37803364e-01,  -5.22898614e-01,  -1.80817383e-01,  -4.99111128e-01
  ,  7.49699973e-01,   1.19217917e+00,  -8.99125820e-01,   1.74659985e+00
  ,  9.65998461e-01,   5.44113899e-01,  -1.15523935e+00,  -1.67953372e-02
  , -7.71459733e-01,   1.09856491e+00,   2.41887713e-01,   2.52648668e-01
  ,  1.17897540e+00,   1.12967715e+00,   1.14693265e+00,   1.65065845e+00
  ,  1.92153726e+00,   1.84199121e-01,  -2.42963205e-01,   9.66040630e-01
  ,  6.63965467e-01,   4.98746046e-02,   4.53546167e-01,   1.63674040e+00
  ,  1.91333202e+00,   6.96207721e-01,   1.16200076e+00,  -2.09816886e-01
  ,  9.86896470e-01,   8.31501709e-01,   2.46200856e+00,   2.03748255e+00
  ,  1.80935045e-01,  -9.12558738e-01,  -5.15641633e-01,  -1.06844127e+00
  ,  2.12394513e+00,   7.55619148e-01,  -9.73410218e-01,   8.10979352e-01
  ,  1.69225956e+00,   3.66557056e-01,   2.01843517e+00,   2.41608362e+00
  ,  4.02704988e+00,   1.82028572e+00,   1.39945881e+00,   7.98293899e-01
  ,  8.74506492e-01,   5.48497101e-01,   1.57044180e+00,   1.14316010e+00
  ,  1.16617870e+00,   1.17415879e+00,   1.19595146e+00,   4.16257321e-01
  ,  1.42086008e-01,   1.74208443e+00,   1.52035452e+00,   1.18732202e-01
  ,  1.11715260e+00,   2.00263173e+00,   3.70186027e-01,   4.63558929e-01
  , -1.42477245e+00,   1.01604057e+00,  -2.87113251e+00,   6.82198540e-02
  ,  5.65475282e-01,   7.10086103e-01,   6.07038639e-01,   2.50015129e+00
  ,  2.77189334e+00,   2.49864722e+00,   1.75754889e+00,   2.38720207e+00
  ,  6.30856945e-02,  -1.30773463e-01,   7.01543996e-01,   1.66469621e+00
  , -2.56980048e-01,   1.78812511e+00,   1.92867114e+00,   1.42763893e+00
  ,  9.15271956e-01,   8.60704700e-01,   1.22681398e-01,  -3.33051397e-02
  , -2.41435954e-01,  -1.48703529e-01,   1.09947320e+00,   2.97276445e-01
  ,  1.96936685e+00,  -4.31234821e-01,   6.26056397e-01,  -1.05979302e+00
  ,  3.46317781e-01,   2.97982862e-01,   9.13638244e-01,   1.54910008e+00
  ,  6.26153071e-01,   1.65326830e+00,   9.57113658e-01,   7.68178869e-01
  ,  2.71495880e+00,   1.24708221e+00,   1.77130209e+00,   5.34787387e-01
  ,  1.48067279e+00,   2.68512943e+00,   1.51430035e+00,   2.50166761e+00
  ,  2.39835196e-01,   2.35536177e+00,   1.42212605e+00,  -6.18738965e-01
  ,  6.45541202e-02,   5.64166126e-01,   6.23338924e-01,   5.97256117e-01
  , -8.27590959e-02,   1.18274728e+00,  -7.65329842e-01,   4.64927058e-01
  , -4.04179480e-01,  -1.28233667e+00,   6.69013953e-01,  -1.99419879e+00
  ,  3.28343719e-01,   1.28203008e+00,   6.15020206e-01,  -4.02313608e-01
  ,  1.15613133e+00,   2.66158008e+00,   1.51899789e+00,   3.13797822e+00
  ,  2.62174100e+00,   2.10240055e+00,   1.36209119e+00,   1.56352858e+00
  ,  2.01851980e+00,   1.24836310e+00,   1.19669376e+00,   1.92247639e-01
  ,  1.22946746e+00,  -2.90732779e-01,  -4.85542120e-02,  -9.09659119e-01
  , -8.75848265e-02,  -1.33117214e+00,  -1.03546662e+00,  -4.87757584e-01
  , -1.56053455e+00,  -6.90960104e-01,  -2.40950468e+00,  -5.61069680e-01
  , -2.54405408e+00,   1.13611416e+00,   8.17464038e-01,   1.19823000e-01
  ,  1.65740539e+00,   2.39863625e-01,   5.21592928e-01,   5.07730122e-01
  ,  3.11488758e+00,  -5.81347474e-01,   2.27268668e-01,   6.14791792e-01
  , -5.21165874e-01,   8.59752629e-01,   5.28899980e-01,  -4.27966569e-01
  ,  2.26124328e+00,  -3.70645160e-01,  -4.92645710e-01,  -1.51184402e+00
  ,  5.68201716e-01,  -1.27322770e+00,  -4.71380957e-01,  -7.86133894e-01
  , -1.31628030e+00,  -6.35527853e-01,  -9.86368034e-01,  -4.84764187e-01
  , -3.91106413e-01,  -4.36275502e-01,  -1.65912084e+00,  -9.91226141e-01
  , -2.88808878e+00,  -1.24338775e-01,  -1.91852189e+00,  -1.87613821e-01
  , -1.80623732e+00,  -2.75945736e+00,  -1.00273712e+00,  -3.63799946e-01
  , -2.15720708e+00,  -3.38944217e+00,  -3.68172182e-02,  -1.17144905e-01
  , -8.43165406e-01,  -8.28654626e-01,   9.69756139e-01,   5.65164535e-01
  ,  1.18887009e+00,  -1.64948691e+00,  -3.06619386e-01,  -3.99916028e-01
  ,  4.93748555e-01,   1.27073859e+00,   7.38977576e-01,   9.86010934e-01
  , -7.51291494e-01,  -6.95338078e-01,   7.64299986e-01,  -1.23193814e+00
  , -2.66927698e-01,  -1.16370807e+00,  -2.42217953e+00,   8.59127467e-01
  , -1.13533875e+00,  -1.90037472e+00,  -1.16850927e+00,  -1.65075639e+00
  ,  6.05876361e-02,   5.08485338e-01,  -7.86727693e-01,  -2.39154284e-01
  ,  2.08799053e-01,   9.06588290e-01,  -9.38968160e-02,   9.88669160e-01
  , -8.15133518e-01,   8.67241312e-01,   4.59446853e-03,   5.75065268e-01
  , -1.88546772e+00,   2.07097932e-01,   9.54788004e-01,  -4.86119882e-01
  ,  1.42582118e+00,   8.02238020e-01,  -2.06655005e+00,  -1.54072189e+00
  ,  1.25921102e+00,  -1.03644446e-01,  -2.71461852e-01,   5.06102386e-01
  ,  8.39983231e-01,  -3.69103463e-01,  -1.40280189e+00,  -7.56751427e-01
  ,  8.79699336e-01,   3.73855248e-01,   5.15732161e-01,   9.23073912e-02
  , -1.59442264e+00,   1.33879544e-01,  -3.10770111e-01,  -1.84074994e+00
 ,  1.04633106e+00,  -9.77120417e-01,  -5.15098561e-01,   9.95350920e-01
  ,  8.94166774e-01,   1.35549247e-01,  -1.09814513e+00,  -6.43400264e-01
  ,  7.68196122e-01,   7.56113474e-01,  -8.26640502e-01,   1.04636926e-01
  , -4.30749127e-01,  -1.35243964e+00,   4.93759846e-01,  -9.18549526e-01
  , -6.88418539e-01,   1.57455720e-01,   1.64550516e+00,  -9.59251078e-01
  , -6.62123288e-01,   1.95616641e+00,  -2.38571228e-01,   2.99129204e-01
  , -2.15096223e+00,  -1.43061425e+00,   9.71479702e-01,   3.33417588e-01
  , -5.76655623e-01,   9.45962930e-01,  -5.86699011e-02,   1.20354463e+00
  ,  1.16623379e+00,  -1.76894841e+00,   1.08113689e+00,   4.85558685e-02
  , -4.91797522e-01,  -1.52452665e+00,  -9.86234377e-01,   1.22100447e+00
  , -9.42746237e-01,  -1.32755787e+00,  -1.71479295e+00,  -8.40086331e-01
  , -1.22725594e+00,  -1.28244048e+00,   3.18664253e-01,   1.33289200e+00
  ,  1.69706632e-01,  -1.19335747e+00,   1.54904040e+00,   2.93107241e-01
  , -6.23656091e-01,   9.82645303e-01,   1.01620245e+00,  -1.61205416e+00
  ,  1.81779519e+00,   8.55656842e-01,   8.35226264e-01,  -6.02487480e-01
  , -9.86621855e-01,   6.94732362e-01,   3.97822625e-01,   1.07770291e-01
  , -1.81444330e+00,  -9.89471158e-01,  -2.89499722e-01,   6.97242215e-01
  , -4.05639570e-01,  -3.75607153e-01,  -2.21054193e+00,   8.88222929e-01
  , -2.35928247e+00,  -3.29795820e-01,  -9.55283207e-01,  -2.52372542e-01
  , -1.13384552e+00,   5.13929487e-01,   1.00760358e+00,   6.71655687e-01
  , -5.14421818e-02,  -8.41810072e-01,   6.29428422e-01,  -4.00124812e-02
  , -7.55098701e-01,  -1.65395186e-01,  -7.41976250e-01,   8.43172932e-01
  , -6.78001796e-01,  -1.11025523e+00,  -9.55594582e-01,   1.23317850e+00
  ,  1.45182344e-01,  -5.85316356e-01,  -6.44101052e-01,  -2.34952520e+00
  , -2.93615543e-01,  -2.31821597e+00,   1.52087526e-01,   1.05671325e+00
  ,  4.25754613e-01,  -5.15237831e-01,  -3.47224689e-01,  -6.85293031e-02
  , -2.57180632e+00,   2.03775382e-01,  -9.46621830e-01,   7.27569353e-01
  ,  1.87325455e-01,   5.46450644e-01,  -4.19999853e-01,   7.73056707e-01
  , -5.80024010e-01,   1.21548751e+00,   2.18213308e-01,   5.23460898e-01
  , -9.94789589e-01,  -2.45254102e+00,  -1.12576747e+00,   8.01080644e-01
  ,  4.76966436e-01,  -5.53262847e-01,   6.12283383e-01,  -1.20060019e+00
  ,  1.41565276e+00,  -3.06816897e-01,  -4.13963026e-01,  -2.96082049e-01
  , -2.00244513e+00,  -5.13671323e-01,  -1.37668000e-01,   2.55611939e-01
  , -1.23893379e-01,   1.04779250e+00,  -4.87533744e-01,   3.01041583e-01
  ,  2.69307961e-01,   1.73511040e+00,   4.93012209e-02,  -7.90720086e-02
  ,  1.70442772e-01,  -1.32201744e+00,  -1.25293398e+00,   1.37507241e+00
  ,  1.17082689e+00,   2.61683035e-01,   1.79153318e+00,  -8.11985874e-01
  , -9.70673266e-01,   1.44947635e+00,   2.49180716e-01,   2.42302279e-01
  , -1.19805843e+00,  -2.25156909e-01,  -9.61521792e-01,   4.13171543e-01
  ,  1.82988649e+00,   1.85165623e+00,   9.80159590e-01,   7.76268662e-01
  , -1.98883758e-01,   1.26311709e+00,  -4.49017173e-01,   7.56064939e-01
  , -3.46520189e-01,  -5.15774289e-01,  -7.11299751e-01,   1.51926092e-01
  , -7.79435038e-01,   2.85136579e-02,  -1.03391438e-02,   3.10357382e-01
  ,  1.65458801e-01,  -2.17880673e-01,   1.30049040e+00,  -5.82501991e-01
  ,  9.34484612e-01,  -8.85704665e-01,  -3.00536287e-01,   2.35827307e-01
  , -1.49653352e+00,   9.33837235e-01,  -1.20508105e+00,   5.28832216e-02
  , -1.25366282e-01,   8.87724282e-01,  -8.29851072e-01,   1.28145098e+00
  ,  1.47677110e+00,  -3.80897330e-01,  -7.68010114e-01,   2.83189900e-01
  ,  1.46800529e+00,  -1.89662866e+00,   5.10758782e-01,  -1.42732999e+00
  , -1.72638825e+00,   7.89009117e-01,   2.79333075e-01,  -2.57731589e-01
  , -2.38765496e-01,   4.07933876e-01,  -8.88775971e-01,  -3.09020605e-01
  , -1.01485254e+00,  -1.31156120e+00,   2.05972286e-01,   1.03555506e+00
  ,  8.83361499e-01,   2.28887062e-01,   1.54208827e+00,   3.25915175e-01
  , -3.08531346e-01,  -3.85588803e-01,  -6.43710213e-02,  -1.04118398e+00
  , -7.39455357e-01,  -3.32984568e-01,   1.49763011e+00,  -1.42985870e+00
  ,  1.02456296e+00,  -2.18422336e-01,   1.42225723e+00,   5.02823844e-01
  ,  1.80343097e-01,   9.97348099e-01,  -7.18182202e-01,   8.65831623e-01
  , -7.57887228e-02,  -1.64521721e+00,  -1.17435517e+00,  -1.50491662e-01
  , -2.71662269e+00,   1.14223110e+00,  -7.35971701e-01,   1.63562870e+00
  ,  7.06253771e-02,  -4.11329904e-01,   2.91785015e-01,  -1.42601385e-02
  , -6.18211882e-01,   4.37674395e-01,   9.21956040e-01,   1.00588890e+00
  ,  2.21702423e-02,  -6.41621670e-01,  -5.89953515e-01,  -7.59605674e-02
  ,  3.11694126e-01,  -4.71410543e-01,  -7.59828003e-01,  -2.22398696e-01
  , -8.44258107e-01,   9.95980273e-01,  -1.03803599e+00,  -7.08480993e-01
  ,  1.02608903e+00,  -5.13441736e-01,  -4.93176133e-01,   2.33130245e-01
  , -1.83999812e+00,  -9.30815976e-01,  -1.32754967e+00,  -1.82211154e+00
  ,  1.72532922e+00,   1.94322340e+00,   3.22256708e+00,   1.81715891e+00
  ,  1.13191391e-01,  -8.92433640e-02,   6.46000442e-02,  -1.10857106e+00
  , -5.32858512e-01,  -5.53252973e-01,   4.26111140e-02,   1.13241451e+00
  ,  4.97118659e-01,   2.45108534e-02,   1.62402060e-01,  -3.96405257e-01
  ,  1.11746992e+00,  -9.97645158e-01,  -1.75671155e+00,  -1.22562453e+00
  ,  1.36928841e+00,   7.57421253e-01,   5.13758737e-01,  -1.29220025e+00
  , -2.52327240e+00,  -3.03853441e+00,  -1.02332209e+00,   5.47089549e-01
  ,  3.97653365e+00,   1.74112267e+00,   1.35265907e+00,  -5.81753943e-01
  , -8.74803826e-01,   5.01711322e-01,  -7.06068498e-01,  -4.05176078e-02
  ,  5.17781164e-01,  -8.19366176e-01,  -1.27147304e+00,  -9.76203337e-01
  ,  1.26447301e+00,  -3.09817347e+00,  -2.32043951e+00,  -1.16411068e+00
  ,  5.22271271e-01,   9.81313512e-01,   8.41905688e-01,   2.54847230e-01
  , -4.72933481e-03,  -1.23181352e+00,  -9.25205806e-01,  -2.06618707e+00
  , -1.36502403e+00,  -2.37290854e+00,  -3.53618612e-01,   1.99580156e+00
  ,  2.11213567e+00,   1.40631024e+00,  -6.97987355e-01,   8.24241494e-01
  , -5.28552909e-01,  -4.20683854e-01,   8.71665567e-02,   3.16867079e-01
  ,  1.26753927e+00,  -1.23899398e-02,   5.14112472e-01,   4.68687576e-01
  , -2.53691161e+00,  -5.59712307e-01,  -1.12586548e+00,  -4.25469320e-01
  , -1.61062273e+00,   1.66459977e-01,  -2.67072485e+00,   1.09606140e+00
  , -7.87428485e-01,  -1.84819543e+00,  -1.79477590e+00,  -1.01146121e+00
  , -2.88294162e+00,  -2.75906521e+00,  -8.51689738e-01,   1.85380211e+00
  ,  1.81823942e+00,   3.39960256e-01,  -1.87433735e-01,   1.18922608e+00
  ,  1.16133798e+00,   4.56219519e-01,  -7.04812096e-01,   6.29261419e-01
  ,  7.42648239e-02,  -2.71311059e+00,  -2.30594687e-01,  -2.28442191e+00
  ,  1.94673518e+00,  -3.58585456e-01,  -3.14976006e-01,  -3.66818304e-01
  ,  8.56536986e-01,   8.03083973e-01,  -5.14595582e-01,   1.77558192e+00
  , -3.22771779e+00,  -1.17161656e+00,  -2.66142391e+00,  -1.65969771e+00
  , -1.83136277e+00,  -2.43540128e+00,  -8.07320626e-01,   1.14258093e+00
  ,  2.36035559e+00,   2.46900352e+00,   4.11776337e-01,  -2.22409437e-01
  ,  3.87472009e-01,   5.25363947e-02,  -8.85321397e-01,   1.19303451e+00
  ,  1.65641632e+00,  -3.90580726e-01,  -4.40422057e-01,  -3.91648007e-01
  ,  2.16155901e-01,  -1.88270254e+00,  -1.82826234e+00,  -5.28612164e-01
  ,  4.83159647e-01,  -1.48097540e+00,  -1.93667913e+00,   2.14478846e-01
  ,  2.33454977e-01,  -2.59600155e+00,  -1.40803151e+00,  -6.52475820e-01
  , -2.58949211e+00,  -8.47120404e-01,   1.31151138e+00,  -1.13247865e+00
  ,  1.92507031e+00,   4.69165566e-01,   1.46693727e+00,   8.59725071e-01
  ,  1.53616421e+00,  -6.88050432e-01,  -1.54577314e-01,   7.68163577e-01
  ,  1.09380427e+00,  -5.27291749e-01,  -1.13482870e+00,  -2.16397495e+00
  , -1.96870083e+00,  -9.37414049e-01,   1.50319771e+00,   1.43836323e+00
  ,  8.57754980e-01,   8.83708410e-01,  -1.44298220e+00,  -3.61225167e-01
  ,  5.28964337e-01,  -1.68873264e+00,  -1.08824711e+00,  -2.89907693e+00
  ,  4.40301847e-01,  -1.62875346e+00,  -9.04763285e-01,  -1.27933951e+00
  , -3.46706736e-01,  -4.10044190e-01,   2.28258274e+00,   4.11532889e-01
  ,  4.28000168e-01,   1.74270305e+00,   9.07159929e-01,   2.26228670e-01
  , -7.30265109e-01,   9.67754192e-02,  -6.12514156e-01,   8.08886242e-01
  , -4.16064801e-02,   1.44933220e+00,   1.05545935e+00,   1.26801208e-01
  ,  6.71706868e-01,  -7.72906965e-01,  -6.83501306e-01,  -1.15611404e+00
  ,  1.22198549e+00,  -5.89260685e-01,   1.52579671e-01,   6.24832966e-01
  , -1.89081159e+00,   9.95733525e-01,   5.11127592e-02,   1.27399472e+00
  , -3.36755408e-01,   1.79910869e+00,  -3.74687644e-01,   5.51564604e-01
  ,  3.06499825e+00,   1.61652138e+00,   4.64410288e-01,   2.89321852e-01
  , -2.94408331e-01,  -1.47335593e+00,   1.22331504e+00,  -7.89021175e-01
  , -1.36038913e+00,   9.40159151e-01,   7.89908505e-01,   6.39533074e-01
  ,  7.01701186e-02,   6.12628628e-01,   9.46579503e-01,   3.31610553e-01
  , -2.78643238e-01,   8.87504807e-01,  -1.22238428e+00,   3.62494116e-01
  ,  1.27008255e-01,  -6.26697127e-01,  -4.90511732e-01,  -1.16134106e+00
  ,  1.42255106e+00,   3.31375020e-01,   2.01729270e+00,   6.48845780e-01
  , -9.27251044e-01,   3.46418242e+00,  -8.23124954e-01,  -1.85441578e+00
  ,  1.42245027e+00,  -3.19335116e-01,  -1.65601698e+00,  -1.34524937e+00
  ,  1.36209881e-01,  -4.92333840e-01,   4.25851958e-02,   1.85075366e+00
  , -8.32407153e-02,  -2.64917200e-01,   1.10662298e-01,   1.12976536e+00
  ,  2.60250433e-01,   2.60912392e+00,   1.19992814e+00,   1.23620041e+00
  , -7.43309499e-01,   8.35164700e-01,   1.77749267e-01,  -2.60047535e-01
  ,  2.57541733e-01,  -1.19067441e+00,  -3.54401862e-01,   4.21749353e+00
  ,  7.18601796e-01,   8.89498040e-01,  -2.17419640e+00,   3.25247331e-01
  , -2.88475337e-01,  -1.70998301e+00,   6.86060726e-02,   1.70472422e+00
  , -1.05036915e+00,   7.65521583e-03,  -9.84013160e-01,  -1.03869845e+00
  , -1.50508252e-01,  -1.68378576e-01,   9.64624358e-01,   2.41892801e+00
  , -8.09797495e-01,  -6.72653753e-01,  -1.05089314e+00,  -2.12051757e-01
  , -2.66003588e+00,   5.27393122e-02,   2.18254146e-01,   2.97335246e-01
  ,  1.58405407e+00,   9.58582556e-01,  -5.12004240e-01,   1.55700633e+00
  , -2.26288116e-01,   1.22462734e+00,  -8.60749369e-02,  -6.62834784e-01
  ,  1.01901852e+00,  -6.88853805e-02,   7.81929015e-01,   6.50484755e-02
  ,  5.89095201e-01,   5.14352044e-01,  -1.13723620e+00,  -1.44339654e-01
  , -1.71885175e-01,  -4.19338788e-01,   1.38411665e-01,   1.61523069e-01
  , -9.17354389e-01,  -2.02116380e-01,   7.30369339e-01,  -5.60037063e-01
  ,  1.45667819e+00,   6.50571420e-01,   6.93880311e-01,  -4.17198054e-01
  ,  1.21531487e-01,  -1.07644383e+00,   1.25527293e+00,  -4.72364450e-01
  ,  6.25284243e-01,   7.80738510e-01,  -1.26537712e+00,  -1.50134059e-01
  ,  1.96692737e-02,  -5.02887066e-01,  -7.15296982e-01,  -9.00611837e-01
  ,  1.22082429e+00,  -1.29050409e-01,   1.96024510e-01,   3.42754479e-02
  , -9.42829096e-01,  -2.26656017e+00,   2.62103342e-01,   7.16849139e-01
  , -3.17494555e-01,   5.66320787e-01,  -9.72892262e-01,   1.58621246e+00
  , -2.54531082e-01,  -1.02066990e+00,   5.76119806e-01,   1.08723118e+00
  ,  9.13711474e-01,   6.99620095e-01,   1.93293984e+00,  -7.33845939e-02
  ,  2.89286308e-02,   1.91167711e+00,  -2.32802750e+00,   9.59657894e-01
  ,  1.69430183e-01,   5.48734721e-01,   6.82481407e-01,   8.74094442e-01
  ,  3.09726405e+00,   3.99171130e-01,  -1.22248843e+00,   3.88357781e-01
  ,  7.08837551e-01,   2.06901783e-01,  -3.83523230e-01,   2.33074754e-01
  , -2.71059101e-01,   4.78256562e-01,   8.17332183e-01,  -1.85753634e-02
  ,  4.63035513e-01,   3.96612420e-01,   9.02881995e-01,  -5.46311045e-01
  ,  1.56466063e+00,   8.13070027e-01,   3.29658310e-01,  -8.02384243e-01
  ,  1.58875598e+00,  -3.58784422e-01,  -9.79417584e-01,  -2.61634318e-01
  ,  3.41707237e-01,  -7.06198630e-01,   9.49313527e-01,   5.70678363e-01
  , -9.39105925e-02,  -6.07369508e-02,  -5.70837203e-01,   8.66755541e-01
  , -5.87922339e-01,  -1.16501046e+00,   2.33908532e+00,   1.31428136e+00
  , -1.23873676e+00,   7.53264643e-01,  -1.87837708e+00,  -4.20846857e-01
  ,  1.16464987e+00,  -5.51465387e-01,   2.14765796e+00,   9.27882062e-01
  ,  1.87341717e-01,  -1.33153230e-01,  -7.40682969e-01,  -7.91968350e-01
  , -7.69328261e-01,  -2.56867634e+00,   6.80181327e-01,   6.33960866e-01
  , -3.74394888e-01,  -7.78012755e-01,   1.89584376e+00,  -8.66983283e-01
  , -5.04126061e-01,   1.90967037e+00,   1.37552767e+00,  -9.14063266e-01
  , -1.62953408e+00,   2.32512489e+00,  -4.64719284e-01,   1.56890893e+00
  , -1.41314308e+00,  -9.54154603e-01,   1.82719577e-01,  -2.41076486e-01
  , -6.05838700e-01,   4.00280992e-01,  -2.91800855e-01,   9.77643326e-01
  , -1.15829482e+00,  -4.34544404e-01,   2.10187757e-02,  -2.73943782e-01
  ,  7.87346337e-01,   9.49219956e-01,  -1.26350465e+00,  -7.95300295e-01
  , -5.76737482e-01,  -4.08287595e-01,  -2.04598905e-03,   2.34138310e+00
  , -7.40124219e-01,   1.34477615e-01,  -2.62834597e-01,   1.29858190e+00
  ,  1.32226721e+00,  -3.96838373e-01,   5.33916846e-01,   7.97306589e-01
  , -6.92336142e-01,  -1.65385133e+00,  -1.00249167e-01,  -1.22139126e+00
  ,  8.14024101e-01,   1.44348682e+00,   1.86167129e-01,  -6.08189475e-02
  ,  1.96584215e+00,   1.01440029e+00,  -1.96646907e+00,  -2.62131334e-02
  , -5.52731543e-01,  -1.29281605e-01,  -7.71397561e-02,  -7.20374640e-01
  ,  1.25079198e+00,   5.45996949e-01,   4.35514789e-01,  -8.95205651e-01
  ,  2.89116696e+00,   1.05711358e+00,  -7.27975971e-01,   5.40787112e-01
  ,  1.10780298e-01,   6.11567244e-01,   1.76333787e-01,   7.17643506e-01
  ,  3.44198439e-01,   1.05179432e+00,  -1.55658993e-01,  -9.88027097e-01
  ,  2.59762797e+00,   6.51208794e-01,   2.34940309e-01,  -2.53377376e+00
  ,  2.04495469e-02,   9.07096172e-01,  -4.31591100e-01,  -5.50458304e-01
  ,  7.88935084e-01,  -1.05575536e-01,   1.73464515e+00,   1.37958330e+00
  , -2.03864958e+00,  -1.27922148e+00,   3.18650607e-01,   5.90845084e-01
  ,  9.69451047e-01,  -2.49647508e+00,  -1.63772877e+00,   1.74505431e-01
  ,  3.62854758e-01,  -4.81461988e-01,  -6.63133192e-01,  -2.74699720e-01
  ,  2.10780941e-01,   7.02565844e-01,  -5.84187811e-01,  -2.91239081e-01
  ,  5.76737142e-01,   1.20640187e+00,   1.50602661e-01,   1.16786208e+00
  ,  1.53616946e+00,  -9.22790324e-01,  -5.04110677e-01,  -3.70128320e-01
  , -1.12807554e+00,  -7.17591067e-01,   1.23209309e-01,  -7.71786388e-02
  ,  6.34252196e-01,  -9.11959828e-01,   6.99540690e-01,   1.16754552e+00
  , -1.56567551e+00,  -9.21926111e-01,   9.60183977e-01,   9.46818440e-01
 ,  3.94060453e-01,  -2.22658858e-01,   2.09478792e-01,   5.68921399e-01
  ,  2.71691651e-01,   6.74262125e-01,   8.15001830e-01,  -8.25108252e-01
  , -1.01859625e+00,  -6.94604826e-01,   2.09444401e+00,  -1.07706542e+00
  , -1.32439787e+00,   1.08836360e+00,  -7.81920365e-01,  -6.54481393e-01
  ,  1.10921147e+00,   1.38081066e+00,  -3.52838301e-01,  -1.15325107e-01
  , -6.13516484e-01,  -1.42262243e-01,  -1.81439123e+00,  -1.42630634e-01
  , -4.57337256e-01,  -8.49882174e-01,   4.54700163e-01,   9.42947646e-01
  ,  2.69845322e+00,  -3.70686097e-01,  -7.45144099e-01,   8.21223279e-01
  ,  1.33444995e+00,  -1.29855196e-01,   1.46978006e+00,   5.01126681e-01
  ,  6.20980091e-01,   1.39787293e-01,   6.05707877e-01,  -1.11438308e+00
  ,  1.91756015e-01,   1.75437380e-01,   9.94751035e-01,   5.33211692e-01
  ,  8.09432502e-01,  -5.13977701e-01,  -1.12107503e+00,  -1.20845208e+00
  ,  2.34083041e-01,   1.43967292e-01,   2.91877974e-01,   1.28057280e-01
  , -3.44466413e-01,  -1.84569727e+00,   8.55319981e-01,  -1.31773027e+00
  , -7.40633154e-01,   4.88930533e-01,  -2.25698998e+00,  -1.28514803e-01
  , -3.55521908e-01,   3.06309685e-01,  -1.11122402e+00,  -1.18646571e+00
  , -5.38123735e-01,  -1.34237367e+00,   2.01815956e-01,  -1.11841251e+00
  ,  1.83621392e+00,   1.83610624e+00,  -5.74658677e-01,   1.19995731e+00
  , -2.33487731e-01,  -6.37371762e-01,  -9.66309079e-01,  -3.78484337e-01
  , -5.31759626e-01,  -5.97297392e-01,  -7.75898983e-01,  -3.27742435e-01
  , -4.12049855e-01,  -3.56456589e-01,  -3.64128573e-01,  -3.91209347e-01
  , -5.71016543e-01,  -2.48087979e+00,   5.65559017e-01,   8.93893303e-03
  ,  1.54622748e+00,   1.57567591e-01,  -9.59948288e-01,  -3.47696851e-01
  ,  3.62225089e-02,   7.85631519e-01,   1.00038148e+00,  -3.48218397e-02
  ,  3.38669758e-01,  -3.67997144e-01,   8.82328317e-01,  -6.12087112e-01
  , -8.79508115e-01,  -1.73177743e+00,  -1.50065372e+00,   9.69718807e-01
  , -1.42624424e+00,   7.87294791e-01,   3.48381447e-02,   6.91602312e-01
  ,  2.55781389e-01,  -2.47693245e-01,   4.79565714e-01,  -3.75366695e-01
  ,  7.57373295e-01,   3.19974809e-01,  -4.15518970e-01,  -2.34027380e-01
  , -7.78907288e-01,   1.82721672e+00,   4.53991175e-01,  -1.83965135e+00
  , -1.40489410e-01,   4.09426904e-01,   6.04058229e-01,   2.50549088e-01
  ,  9.80863614e-01,   1.23309768e+00,  -1.62671791e+00,   1.06679762e+00
  , -1.40233683e+00,  -3.53122960e-01,  -9.49348557e-01,  -1.51461393e+00
  , -9.87089752e-01,   7.56859407e-01,   1.63183154e-01,   7.04213618e-01
  ,  1.12784649e+00,   2.88165869e-01,  -5.01551425e-01,  -1.28354183e-01
  ,  2.41389296e+00,  -1.23606628e+00,   8.82045467e-01,   1.69235132e-01
  ,  4.42525468e-01,   9.21000806e-01,   1.91732657e+00,   7.77431672e-01
  ,  5.55876553e-02,  -7.17227513e-01,   1.98800182e+00,  -3.36701146e-01
  ,  2.27998678e-01,   1.33619868e+00,   2.01595473e+00,  -6.04869190e-01
  ,  3.73188415e-01,  -1.40192281e+00,  -1.74296822e+00,  -2.21846656e+00
  , -4.77907191e+00,  -3.79785228e+00,  -1.09564642e+00,  -5.93087251e-02
  , -6.78138527e-01,  -2.82292825e-01,  -1.52898429e+00,   1.42951369e+00
  , -2.59298753e-02,   2.93577909e-01,   5.52666372e-04,   9.80196225e-01
  ,  1.13257276e+00,  -1.21754193e+00,   2.08111161e+00,   9.39641708e-01
  ,  1.91888296e-01,   8.57166174e-03,   1.83861808e-01,   9.01551907e-01
  ,  5.84113575e-01,   6.62189576e-01,  -1.29777429e+00,   8.44965779e-01
  , -1.06285804e+00,  -6.27690964e-01,   1.22879027e+00,  -2.54939353e+00
  , -2.74799214e+00,  -3.53865155e+00,  -2.80981523e+00,  -9.82237617e-01
  ,  1.31808184e+00,   1.21732433e+00,   1.25673509e+00,  -1.29068959e+00
  ,  1.54893002e+00,  -6.24617159e-01,   1.36220214e+00,   1.72206119e+00
  ,  1.43172878e+00,  -2.30070737e-01,  -6.69387822e-01,  -1.26559652e+00
  , -1.29934177e+00,  -9.72716072e-01,  -3.00862501e-01,   8.74922068e-02
  ,  2.85895775e-01,  -7.64297235e-01,   7.78034121e-01,   7.87314614e-01
  , -1.59381309e-02,   8.12067894e-01,   4.96463703e-01,  -3.69701261e+00
  , -2.95153926e+00,  -2.30421624e+00,  -2.02444735e+00,  -5.25552577e-01
  , -1.96495774e-01,   8.28455791e-01,  -1.05601635e+00,  -5.13671317e-01
  , -2.15945946e-01,  -3.08945385e-01,  -3.62066229e-01,   3.71892323e-01
  ,  1.75927052e+00,   1.32734869e+00,   9.97114134e-01,   1.59556828e+00
  ,  3.18563635e-01,  -6.05249057e-01,   8.33191074e-01,  -2.43780204e+00
  , -5.71331540e-01,   1.45322093e-03,   2.30967024e+00,   1.93711413e+00
  , -5.43228646e-01,  -8.46495253e-01,   1.87331229e-01,  -4.06286674e+00
  , -2.47369438e+00,  -1.55867940e+00,  -2.62625231e+00,  -1.41480486e+00
  , -2.36485221e+00,   2.30896471e-01,   1.63214797e+00,   1.90053527e-02
  ,  1.10184621e+00,   8.67104315e-02,  -9.86501628e-01,   8.63750296e-01
  ,  4.57134659e-01,  -4.63589907e-01,   2.92539960e-01,  -5.40347005e-01
  , -2.03305772e+00,  -3.05969432e-01,  -1.08644518e+00,  -9.02768625e-01
  , -9.61762158e-01,   7.65268724e-01,   2.90014967e+00,   2.41755056e+00
  ,  2.45071801e+00,   1.50341563e+00,  -3.43476018e-01,  -2.85351768e+00
  , -2.09842066e+00,  -2.56232715e+00,  -1.03637670e+00,  -5.11701429e-01
  ,  3.67781450e-01,  -1.79981001e+00,  -2.33012362e-01,   6.26355833e-01
  ,  1.07522391e+00,  -1.90886131e+00,   1.26640503e+00,   1.93258741e-01
  , -1.69798686e+00,   1.26984905e+00,  -6.72044858e-02,  -2.14422246e+00
  , -1.79135164e+00,  -1.88306619e+00,  -2.55923156e+00,  -7.40553253e-01
  , -9.72874535e-01,   1.42884459e+00,   4.09615529e+00,   2.01274973e+00
  , -1.99478701e-01,  -1.49603690e+00,  -2.97699576e+00,  -2.43630880e+00
  , -1.79596000e+00,  -8.25920599e-01,  -9.42212735e-01,  -1.11211664e+00
  , -2.99089255e-01,  -8.50555665e-01,   8.58775434e-01,  -1.26712254e+00
  ,  5.38036451e-01,  -5.77657123e-01,   1.13771522e+00,   2.13565721e+00
  , -1.53406252e+00,  -5.78347598e-01,   1.62999977e-01,   2.06577324e-01
  , -5.72049769e-01,   2.08075062e-01,  -4.39978526e-01,   1.92304177e+00
  ,  2.06880603e+00,   2.78355505e+00,   3.43183438e+00,   1.51456841e+00
  , -1.86119057e+00,  -3.14149135e+00,  -2.65673380e+00,  -5.72575054e-01
  , -1.91195516e-01,  -1.09653743e+00,  -6.25877913e-02,  -8.73355875e-02
  ,  3.81084331e-01,  -1.28700104e+00,   5.86642568e-01,  -4.35756637e-01
  ,  2.15880146e+00,   1.02815294e+00,  -2.40744991e+00,  -8.71886872e-01
  ,  1.15246832e+00,   5.89081857e-01,  -3.17820074e-01,  -2.25922172e+00
  ,  5.47240378e-01,   4.09018069e-01,   2.62371338e-01,   1.34810242e+00
  ,  4.00655706e-01,   2.15802494e+00,   1.09608291e+00,  -1.99514430e+00
  , -1.75295549e+00,  -2.47292059e+00,  -2.05861888e+00,   1.76183315e+00
  , -1.03533942e+00,   3.36436184e-01,  -3.61042284e-01,   7.81233188e-01
  , -8.38714642e-02,   4.27268570e-01,  -1.96834671e-01,   1.26357806e-02
  , -4.84245326e-01,  -1.28598166e-01,  -8.96687893e-01,   2.15202390e+00
  , -2.98329674e+00,  -3.89951519e-01,  -4.57083085e-01,  -8.01699796e-01
  , -1.89025017e-02,   6.84494045e-01,  -2.04137174e-01,  -3.79565029e-01
  ,  2.88417471e-01,   4.78239489e-01,   6.84380514e-01,   4.60064236e-01
  ,  8.40455515e-02,   1.64522815e+00,   2.90545881e-01,   6.71586050e-01
  , -3.25431482e-02,  -7.41796383e-01,  -3.94048736e-01,  -2.01235979e+00
  , -5.74831956e-01,   7.51187776e-01,   1.21545465e+00,  -8.17541591e-01
  , -1.09739470e+00,   4.81913806e-01,   5.30644168e-01,  -1.18379281e-01
  , -7.63405870e-01,  -6.36572296e-01,  -6.33982253e-01,  -2.74861865e-03
  , -6.09527715e-01,   5.86003773e-01,  -8.79667673e-01,  -1.59497104e+00
  ,  1.55489876e+00,  -1.41494067e+00,  -3.31060526e-01,  -1.28938187e+00
  ,  1.02145370e-01,  -1.58275390e+00,  -2.28814927e+00,   6.44825199e-01
  ,  3.76682537e-01,   1.32101836e+00,   1.87220690e+00,   1.97387453e-02
  , -1.00070787e+00,  -2.01809306e+00,   5.63850467e-01,  -9.14362843e-01
  , -6.53501891e-01,   7.10386718e-01,  -1.16356423e-01,  -1.79708922e-01
  , -1.13281571e+00,  -1.24148521e+00,   2.23506459e-01,  -1.11667312e+00
  ,  1.29710652e+00,   1.60938701e+00,  -6.53589456e-01,  -9.40816633e-01
  , -2.59930090e-01,   7.99251302e-01,   5.17699926e-01,  -1.62981536e+00
  ,  1.34891691e+00,   1.36090250e+00,   1.17610824e-01,   7.28906380e-01
  , -1.27619068e+00,   1.62429602e-01,   5.03004685e-01,  -7.60566156e-01
  ,  1.83459625e-01,   6.20652833e-01,  -3.24887421e+00,  -4.15662631e-01
  ,  3.30284704e-01,   9.54985172e-02,   7.70988296e-01,  -6.81310454e-01
  ,  5.43732152e-01,  -1.27914540e-01,   9.22864854e-01,   1.17423083e+00
  ,  3.62153969e-01,   3.34079198e-01,   3.86493579e-01,  -1.06555527e+00
  , -4.53060252e-01,  -4.52726446e-01,   6.38313735e-01,  -7.66204019e-01
  , -1.14815495e-01,  -8.08391632e-01,  -7.26820236e-01,   5.91993662e-01
  ,  1.36333609e+00,  -1.67720787e-01,   1.39037059e+00,   8.58604065e-03
  ,  8.27229830e-01,  -1.40143859e-01,  -1.02332820e+00,  -4.02791139e-01
  ,  9.35012707e-01,   8.07173737e-01,  -1.09807427e+00,   7.02864501e-01
  ,  7.91538649e-01,   4.68399898e-01,   1.06821064e-01,   8.49562946e-01
  ,  3.72368815e-01,   1.94622727e-01,  -1.03618965e+00,  -2.25371092e+00
  , -1.20683378e+00,   9.94905328e-03,   2.69456592e+00,  -5.08957907e-01
  , -1.80409571e+00,  -1.00512328e+00,   1.05196761e+00,   2.61956410e-02
  ,  2.10673629e+00,   1.85766815e+00,   6.19894493e-01,   1.33874839e+00
  , -2.44342610e+00,   1.55122933e+00,   8.27212384e-01,  -3.73744828e-01
  ,  5.43353689e-01,  -1.06887454e+00,   7.88026730e-02,   1.07997997e-01
  ,  6.68272865e-01,  -1.31913419e+00,   7.49732484e-03,  -1.03839099e+00
  ,  7.48845023e-01,  -1.14548986e+00,   2.08795081e-03,  -1.26570863e+00
  , -8.66783814e-01,   5.04978242e-01,  -7.96931888e-01,   4.12346691e-01
  ,  7.84697764e-01,   8.96727045e-01,  -1.13272871e-01,  -5.62217716e-01
  ,  9.38898385e-01,   8.57149033e-01,   1.24649352e+00,  -1.11441426e-01
  ,  4.36360136e-01,  -4.10419558e-01,   5.79002705e-01,  -9.41975481e-01
  ,  8.82565507e-01,  -2.08404899e+00,  -1.36172748e+00,  -7.35435817e-01
  ,  7.62429593e-01,   3.50253957e-01,  -6.38528377e-01,   4.12496664e-01
  , -1.70135587e-02,  -2.46197508e+00,  -3.93706630e-01,  -7.69075486e-01
  , -2.48031964e+00,  -5.06141877e-01,  -9.99922466e-01,   1.37703321e+00
  , -1.73664383e+00,  -3.97330465e-01,   1.22919236e+00,   1.24589822e+00
  , -8.98812382e-01,   1.99399661e+00,  -1.98413655e-01,  -1.82004918e-01
  , -1.51449935e+00,   1.18963500e+00,   1.83725324e-01,  -7.58114503e-01
  ,  3.48199056e-01,   1.32000665e+00,  -7.00415979e-01,   8.61002089e-01
  ,  3.93137860e-01,   3.17885309e-01,  -9.62417265e-01,  -4.87081534e-01
  , -1.57957536e+00,   5.27237755e-02,   1.31560548e-01,  -1.93723118e+00
  , -4.10428761e-02,  -3.43131648e-01,   4.64693816e-01,   1.33570179e+00
  ,  5.82353169e-01,   2.47490138e-01,   1.26931053e+00,  -9.58593581e-01
  ,  1.03027813e+00,   2.11097511e-01,   2.48326152e-01,   6.66819930e-02
  , -1.71259162e+00,  -1.19768071e+00,   1.06584389e+00,   1.09799854e+00
  , -1.50434286e+00,  -5.94906836e-01,  -7.93507214e-01,   1.15150539e+00
  ,  1.49036995e+00,   1.10639521e+00,  -6.23520039e-01,  -1.75358161e+00
  ,  1.00774202e-01,  -9.06603439e-01,  -2.16748818e+00,  -8.41918849e-01
  ,  7.86950949e-01,  -2.20375773e+00,   5.55288643e-01,  -1.45813749e+00
  ,  1.44064244e+00,  -5.90875476e-01,   1.41476420e+00,   7.17565624e-01
  , -2.98246534e-01,  -8.04640570e-01,  -1.41826917e+00,  -1.33149659e+00
  ,  4.13630180e-01,  -3.53670782e-01,  -1.53024850e+00,  -1.98116066e-02
  ,  3.82110312e-01,   4.92673352e-01,  -1.22570034e+00,   1.20292251e-01
  , -1.21244598e+00,  -2.57807559e+00,  -6.92647640e-02,  -3.98003276e-01
  ,  1.03872648e+00,  -4.54293243e-01,  -3.60338359e-01,  -8.96738330e-01
  , -1.78521388e+00,  -1.54263620e-01,  -3.89014215e-01,  -3.62981768e-01
  ,  2.01542764e-01,  -5.47145151e-02,  -4.93111581e-02,   4.80158367e-01
  , -1.43522167e-01,  -8.08179595e-01,   1.23710693e-01,  -1.39090467e+00
  , -7.16576570e-01,   8.91120601e-01,   2.46610542e-01,   7.98531037e-02
  , -4.16091426e-02,  -1.70231434e+00,   2.79119268e-01,  -8.51835107e-02
  ,  1.93869305e+00,   5.68585430e-01,   7.14686948e-01,   1.33400389e+00
  ,  1.10663644e+00,  -3.35041529e-01,  -7.57780615e-01,   4.33941844e-01
  ,  1.86687442e-01,  -1.41118350e+00,   3.57155242e-01,  -2.00247848e+00
  ,  5.24893524e-01,   9.03962377e-01,   1.47644580e+00,   6.61704664e-01
  ,  5.82284017e-01,   1.26419011e+00,  -1.58408768e+00,  -2.05748196e+00
  , -4.30919551e-01,   7.63806883e-02,   1.05892986e+00,  -1.42181589e+00
  ,  7.23556933e-01,   5.64654823e-01,  -4.92628962e-01,  -2.62273967e-01
  , -8.59676867e-01,  -1.06783042e-01,   3.06043058e-02,   1.00755730e+00
  ,  7.20168827e-01,   8.57750854e-01,  -2.45214349e-02,  -6.16194997e-01
  , -7.56545308e-01,  -1.06467629e+00,  -5.99511162e-02,  -4.58925615e-02
  , -8.83370998e-02,  -2.81548051e-02,  -1.39689534e+00,  -1.13619128e-01
  , -1.49907905e+00,  -1.51735553e-01,  -1.46595075e+00,  -1.39539253e-01
  ,  6.56848990e-02,  -2.29274507e-01,   1.50252288e-01,  -5.87526411e-01
  , -9.91675935e-01,  -1.07164950e+00,  -3.29388410e-01,  -1.94250529e+00
  ,  2.34783981e+00,  -4.10725254e-01,   9.53070127e-01,   1.26260818e+00
  ,  5.01344809e-01,   2.31492448e+00,   1.01751398e+00,  -2.75754723e-01
  ,  6.74361665e-01,  -3.82816075e-01,  -2.45651430e-02,   9.67113618e-01
  , -2.37498713e+00,  -2.28488381e-02,  -7.04148597e-01,  -4.96357065e-01
  ,  9.08247650e-01,  -7.42073364e-01,  -1.04148174e-01,  -1.30679343e+00
  ,  1.24745582e-01,   8.62716453e-01,  -1.81706251e+00,  -2.22513105e+00
  , -1.40687294e+00,   1.52018574e+00,   1.98142161e+00,  -8.74834894e-01
  , -1.27760640e+00,   3.73980829e-01,  -8.17376714e-02,  -4.00785349e-01
  , -1.08499137e+00,  -1.04668395e+00,  -6.74531239e-01,   6.35630735e-02
  ,  1.49976329e-01,  -1.30439176e+00,  -1.23754956e-01,  -7.14867381e-01
  , -6.26234244e-01,  -7.93217554e-01,  -1.63864358e-02,  -1.09115222e+00
  , -9.54213179e-01,   8.16837172e-01,  -1.33639101e-01,   2.45572486e+00
  ,  1.04618144e+00,   4.85417258e-01,  -4.89825751e-01,  -3.35450185e-01
  , -1.15226938e+00,   3.95291893e-01,  -4.43676117e-02,   8.74068411e-01
  ,  2.09497224e+00,  -7.17417465e-01,   3.73224757e-01,  -1.43282251e+00
  , -1.01336299e+00,   1.02164935e-01,  -9.31225288e-01,  -3.23099239e-01
  , -8.27830219e-01,   5.67901343e-01,  -9.09004001e-01,  -2.57810537e-01
  ,  3.67892717e-01,  -4.86148373e-01,  -3.79287130e-01,  -6.38366709e-01
  ,  4.64747704e-01,  -1.76253170e-01,  -1.92423519e+00,   1.15456405e+00
  , -6.61598727e-01,  -4.85461695e-02,  -2.49576054e-01,   1.14632587e+00
 , -1.43984896e-01,   1.16444824e+00,  -8.26726025e-01,   5.05501984e-01
  ,  7.97713029e-01,  -7.66617575e-01,   8.61114980e-02,   1.13166440e+00
  , -7.82320512e-01,  -9.85077941e-01,  -2.12355556e+00,  -1.89494321e+00
  ,  1.72940690e-01,   7.68403621e-01,  -1.39290200e+00,  -1.84413263e+00
  , -8.97527616e-01,  -5.68767257e-01,   5.26039607e-01,  -3.08926216e-01
  ,  8.67617387e-01,   1.11454836e+00,   1.56210590e-01,   7.38880765e-01
  , -5.72059324e-01,  -2.92707061e+00,   7.91183048e-01,   8.57408278e-01
  ,  1.22998938e-01,   6.46809380e-02,   1.59866581e+00,   9.60416341e-01
  , -3.64912186e-01,   2.19356036e+00,   7.87100365e-01,  -8.06593963e-02
  , -3.87848002e-01,  -1.06958070e+00,   1.40428084e+00,   4.53195804e-01
  , -1.48049380e+00,   4.43735990e-01,   4.02236923e-01,   9.14857622e-01
  ,  4.06689431e-01,   1.12766202e+00,  -1.86603775e+00,   2.39390846e+00
  ,  5.72103596e-01,   5.00367484e-01,  -2.32436236e+00,   1.46323597e+00
  , -4.73308746e-01,   2.10258096e-01,  -6.84245483e-01,  -1.01341798e+00
  , -9.42507804e-01,  -5.49995914e-01,   6.87902171e-02,   9.72909109e-01
  , -1.35527470e+00,   4.28949063e-01,   1.27248638e+00,  -2.94152239e-01
  , -1.23225563e+00,   2.12890321e+00,   2.00694338e+00,   1.79837946e-01
  ,  1.30701507e+00,   1.78444804e+00,  -5.74949138e-01,   1.14880652e+00
  ,  9.64891788e-01,   7.66900485e-01,   1.46060034e+00,  -7.00038635e-01
  , -3.67895813e-02,  -1.25897579e-01,  -1.60413859e+00,  -1.79933538e+00
  , -7.69063323e-01,  -1.36658354e+00,   3.91860064e-01,  -3.55200844e-01
  , -1.15181436e+00,  -1.58957065e+00,  -3.06097532e+00,   8.09579795e-01
  ,  3.62774189e-02,  -1.40314633e-01,  -8.54191276e-01,   4.97914010e-01
  , -1.34100755e+00,   1.01638940e-01,   2.37739275e-01,   4.81433179e-01
  ,  1.07186546e-01,  -9.52949206e-01,  -1.62560076e+00,  -2.30037136e+00
  ,  1.43268103e+00,   8.08551363e-01,  -1.04219319e+00,   1.25391140e+00
  ,  9.18296856e-01,  -3.32325568e-01,  -1.28945557e+00,  -2.28363990e+00
  , -5.70464477e-02,   6.66615866e-01,  -1.52029949e+00,   4.58840410e-01
  , -2.40150157e-01,   4.00567617e-01,   7.04991032e-01,  -1.46226056e-01
  , -2.09347744e-01,  -2.60784920e-01,   1.18939110e+00,   1.59772709e+00
  ,  2.47174326e-01,  -4.42864235e-01,   7.40819262e-01,   1.97605506e-01
  ,  3.81862697e-01,  -2.28937158e+00,   7.59062818e-01,   1.59018303e-01
  ,  7.84307693e-01,   1.89139832e-01,  -8.06523977e-01,   6.58098128e-02
  ,  4.86777432e-01,  -1.54679202e+00,  -1.51906559e+00,   1.51450020e+00
  , -1.52116510e+00,  -1.56167158e+00,  -8.29534277e-01,   1.54405518e+00
  , -3.39331376e-01,  -1.21671043e+00,   1.29105213e+00,  -1.39818089e+00
  ,  3.68908902e-01,   1.35076339e+00,  -1.13220816e-01,  -1.51788233e+00
  ,  5.35718109e-01,   8.71450301e-01,  -3.94357726e-01,  -1.71753171e-01
  , -1.80514233e+00,  -9.80227244e-01,  -1.53454759e-01,   7.85663886e-01
  , -2.75092592e-02,   9.53949267e-02,  -2.18609492e+00,  -4.84232815e-02
  , -2.28726915e+00,   5.60353278e-01,   2.12445248e+00,   9.47916030e-01
  ,  9.88156698e-01,   1.33076895e+00,   6.72461254e-01,   1.61955423e+00
  , -4.44509659e-01,   2.44776297e+00,   2.15834464e+00,   2.94788503e-01
  , -1.85757438e-01,   1.47854804e-01,  -1.01042432e+00,   9.83115316e-01
  , -6.14743156e-01,  -9.43844404e-01,   6.14476093e-01,   3.54744717e-01
  ,  1.30564942e+00,  -1.11787776e+00,   7.91854248e-01,  -1.31624122e+00
  , -4.95696678e-01,  -5.76544402e-01,  -5.90411427e-01,   9.83346170e-01
  , -7.52906337e-04,  -6.22329745e-01,  -9.77202120e-01,  -2.31248302e-01
  ,  1.03403419e+00,  -1.40728844e-01,   1.87494403e-02,  -8.89280130e-02
  ,  3.72136611e-01,   1.32555066e+00,  -8.59231679e-01,   1.41729443e+00
  ,  9.68829551e-01,  -8.30182009e-01,  -8.80570731e-01,  -3.71862967e-01
  ,  6.12716274e-01,  -1.11225216e+00,   1.08081849e+00,   1.74573171e+00
  , -6.29855473e-01,  -5.54001070e-02,  -1.60928382e-01,   3.98635644e-01
  ,  2.18473312e+00,  -3.23824887e-01,  -2.94729122e-01,  -3.12419046e-02
  , -1.04112055e-01,   6.64120637e-02,  -3.40195919e-02,  -5.57982767e-01
  ,  8.26015199e-01,  -1.15420321e+00,   4.20944028e-01,   4.92990839e-01
  , -4.96280683e-04,   5.54658877e-01,  -1.55456238e+00,  -6.23953250e-02
  ,  1.60087570e+00,  -1.24271034e-01,  -9.77681991e-01,   1.26145198e+00
  , -4.32937343e-01,   4.83107840e-01,   4.95528861e-02,   6.38906011e-01
  , -9.88929090e-01,   1.04823572e+00,  -8.96357053e-01,   1.30558411e+00
  ,  1.04019418e+00,   1.44530164e-01,  -5.68484232e-02,  -6.07194029e-01
  ,  8.46069705e-01,   1.33066521e+00,  -7.40390603e-01,  -6.72937777e-02
  , -1.10786008e+00,   1.55174939e+00,  -1.95325102e+00,   1.78860784e+00
  , -1.94988700e+00,  -9.61085337e-01,   3.96244534e-01,   1.42437203e+00
  , -1.12760957e+00,  -8.29532900e-01,  -2.65456678e+00,  -1.61046622e+00
  , -8.16062549e-01,   4.79980890e-01,   6.15587773e-01,  -2.41270613e-01
  , -1.98083216e+00,  -3.42182858e+00,  -1.54284251e+00,  -4.12073721e-01
  ,  1.09327756e+00,   3.35471417e-01,  -1.23849368e-01,  -1.03624773e-01
  ,  3.48000664e-01,   5.00709596e-01,  -8.65843012e-01,  -5.84003947e-01
  ,  5.18816833e-01,   4.28323548e-02,   7.87470914e-01,   6.17646018e-01
  , -1.14705594e+00,   4.73192221e-01,   3.37745779e-01,   2.21354880e+00
  , -4.99039279e-01,  -7.68078071e-01,   9.14472753e-01,   7.54224896e-01
  , -9.73557695e-01,  -1.87908524e+00,  -1.39528279e+00,  -2.90551666e+00
  , -9.27435724e-01,  -1.21926668e+00,  -8.43504497e-01,   1.40251380e+00
  ,  1.48603803e+00,   1.65210326e+00,   6.43968006e-01,   1.28230293e-01
  , -6.28129672e-02,   1.31498902e+00,   5.51747417e-01,  -6.57049683e-01
  ,  1.00377873e+00,   1.43292404e+00,   1.07792830e+00,   7.73368238e-01
  , -2.13061562e-01,  -1.33105346e+00,  -2.88549315e-01,   7.21570243e-02
  ,  2.67427446e-01,   7.16532146e-01,  -1.80716695e+00,   9.75107791e-01
  , -2.31772278e+00,  -1.04622125e+00,  -1.60281737e+00,  -2.25961373e+00
  , -2.40023840e-02,  -1.09182209e+00,  -5.21751956e-01,   2.27067227e+00
  ,  1.87692813e+00,   1.15608663e+00,  -1.22425957e+00,  -1.05641194e+00
  , -8.54415001e-01,   3.03291591e-01,  -1.11745846e+00,   1.89752299e+00
  ,  4.24308017e-01,   1.31182339e+00,   6.38205524e-01,   1.53471631e+00
  , -1.90652440e-01,   8.43482160e-01,   1.05130249e+00,   1.89523287e+00
  ,  1.08213163e+00,   1.18178860e+00,  -1.26406287e-01,  -2.64410272e+00
  , -1.24280898e+00,  -5.47300240e-01,  -4.44611294e-01,  -2.11127814e-01
  ,  1.49743070e-01,  -8.58314003e-01,  -5.13344363e-01,   7.46751810e-01
  , -1.93743130e-01,   4.35284028e-01,  -9.26519916e-01,  -3.50600313e-01
  , -2.88814157e+00,   6.55932098e-01,  -1.37569008e+00,  -1.37356840e+00
  , -2.71592636e-01,  -9.91977518e-01,   7.29055730e-01,   1.48805008e-01
  ,  1.96297517e+00,  -1.25561479e+00,   1.86214572e+00,  -1.74246336e+00
  ,  7.02109463e-01,  -8.88902784e-01,  -6.49822686e-01,  -6.17624205e-01
  , -6.47295161e-01,  -1.73497374e+00,  -1.87656959e-01,   3.40977117e-01
  ,  3.56844613e-01,   4.26265698e-01,   9.74579425e-01,  -1.90203972e+00
  ,  1.55475800e+00,   1.36407261e+00,  -7.20820341e-01,  -2.14966035e-01
  , -3.18841580e-01,  -1.25680489e+00,  -6.53758830e-01,  -1.13141957e+00
  , -4.60253565e-01,  -7.43804710e-01,   1.07660959e+00,  -1.40339197e+00
  , -2.41097450e-01,   8.83198296e-01,   5.84547958e-01,   1.19449704e-01
  , -6.88996115e-01,  -7.82682149e-01,  -9.32355020e-01,  -1.48655723e+00
  , -1.26188634e+00,  -1.19147596e+00,   1.38997784e+00,   8.73794409e-01
  ,  1.48020223e+00,  -2.55419114e+00,   1.11370638e+00,  -1.46565083e-01
  , -3.41635280e-01,  -1.36497152e+00,  -7.55574506e-01,   1.28386511e+00
  , -5.76708165e-01,  -2.51829570e-01,  -2.99715044e-01,   1.12114115e+00
  ,  1.07205164e+00,   5.68563405e-01,   1.53752672e-01,  -1.09845661e+00
  , -3.04507346e-01,   1.94226230e+00,   2.05712972e+00,  -5.96664299e-01
  ,  1.14398787e+00,  -1.18516814e-01,   4.71318809e-01,   8.09975651e-01
  , -6.24930786e-01,   1.37565241e-01,   5.49657186e-01,   8.90224317e-01
  , -8.67294834e-01,  -1.03834425e+00,  -9.69741061e-01,  -9.94751743e-01
  ,  1.62733545e-01,   3.43540890e-01,   6.96702087e-01,  -1.23358556e+00
  ,  1.13673847e+00,  -9.54596893e-01,  -2.51225528e+00,  -1.07297550e+00
  , -7.51372742e-01,  -5.02179605e-01,  -4.67767239e-01,   8.99290030e-01
  ,  1.03050615e+00,   5.00233785e-01,  -1.11925297e-02,   4.79217490e-01
  , -5.74297151e-02,   9.40357644e-01,   3.87470558e-02,  -1.42544749e+00
  , -2.73585197e-01,  -1.30778718e+00,  -4.20304848e-01,   4.66400407e-03
  , -1.12014277e+00,  -8.07741237e-03,  -1.43370986e+00,  -5.40920989e-01
  ,  1.49355074e+00,   7.08298070e-01,  -2.87084904e+00,   4.73732379e-01
  , -9.90168344e-01,  -2.47765893e+00,  -1.12736667e+00,  -5.41430954e-02
  , -1.80683472e+00,   3.95196275e-01,  -3.99004743e-01,   5.92778232e-01
  ,  6.75095193e-01,   1.35215967e+00,  -1.05922067e-01,  -1.10084542e+00
  ,  2.39445206e-02,   2.50417774e+00,   8.10674282e-01,   8.38259738e-01
  , -8.07803319e-01,  -1.74813876e+00,  -1.09676024e+00,   1.40122838e-01
  ,  1.58254190e+00,  -2.59601732e-02,   2.82320916e-01,  -3.55328282e-02
  ,  1.09908603e+00,   9.98081922e-01,  -1.38039920e+00,  -1.89633642e+00
  , -2.11244365e+00,  -6.04760196e-02,  -1.06196134e+00,  -2.98218316e-02
  ,  1.28915216e-01,  -8.18046866e-01,   1.18466798e+00,  -3.63297797e-01
  ,  2.97681733e-01,  -5.64168361e-02,  -2.05050780e-02,  -3.25980379e-01
  , -1.94708609e-02,   5.70319430e-01,  -1.14652777e+00,  -6.67622192e-01
  ,  1.14805093e-01,   8.26336999e-01,   1.00646409e+00,   1.89209232e+00
  ,  1.27192989e+00,   2.20124340e+00,  -1.34628020e+00,  -2.05469682e-01
  , -5.78211186e-01,  -4.64598965e-02,   1.41046293e+00,  -2.30188406e+00
  , -1.23012213e+00,   2.40246292e-01,  -1.10242848e+00,   5.14610923e-01
  , -4.49807819e-01,  -5.35514788e-01,  -1.81502879e-01,   9.38649489e-01
  ,  5.79001580e-01,  -1.70180349e+00,   1.00649464e+00,  -1.22216944e+00
  , -9.76815845e-02,  -2.16423324e-02,   1.24749888e+00,   4.84876205e-01
  ,  4.43431133e-01,   1.89839320e+00,   1.11376281e+00,   1.11170048e-01
  ,  2.20638732e+00,   8.82406560e-01,   4.63603413e-01,  -9.78765591e-01
  , -1.64823570e+00,  -1.50794673e+00,  -6.80285426e-01,  -1.26885138e+00
  , -1.01242157e+00,  -1.71942189e+00,   4.60476595e-01,   5.58915680e-01
  , -2.94730974e+00,   1.70168595e+00,   6.97723132e-01,   3.03487599e-01
  , -3.94427676e-01,  -1.47094047e-01,  -6.75383375e-02,   6.01823441e-01
  ,  1.02149103e-01,  -1.35189495e+00,   2.93148029e-01,  -1.00109998e+00
  , -9.39890773e-01,  -5.96436337e-01,   1.26089693e+00,   1.67779699e+00
  , -8.31200267e-01,   9.78071821e-01,  -9.21155197e-01,  -7.32375095e-02
  , -1.92641775e+00,  -9.37874636e-01,  -1.97993916e+00,  -5.80134595e-01
  ,  3.04190463e-01,   6.48468091e-01,  -1.56841535e+00,  -5.75461606e-01
  , -8.52711277e-01,  -2.07338446e-01,   4.60890200e-01,  -1.25216841e+00
  , -2.94023734e-01,  -3.65657025e-01,  -6.59449938e-01,   1.03047566e+00
  ,  2.75056460e-01,   7.99995925e-01,  -8.92584316e-01,  -1.04728759e+00
  ,  1.34881120e+00,  -1.04748832e-01,  -3.61483196e-01,  -7.45170692e-01
  ,  5.89532725e-01,  -3.01362906e-01,  -2.04411617e+00,  -2.39526858e+00
  , -2.47744503e+00,  -2.39932872e+00,  -2.48065248e+00,  -1.95911023e+00
  , -1.77157340e-01,  -1.32476773e+00,   7.15299398e-01,   1.00472365e+00
  ,  6.65257059e-01,   4.82003621e-01,  -1.18488208e-01,   1.14230338e+00
  , -1.40225087e-01,  -1.23124354e-01,   1.47916842e+00,  -1.97680014e-01
  , -7.05557196e-02,   1.26059294e-01,   2.79610800e+00,  -1.03255657e+00
  ,  2.39553829e-02,  -1.67744573e+00,  -4.44658171e-01,  -2.23782278e-01
  ,  2.23702701e-02,  -1.00943618e+00,   6.73466166e-01,  -1.30234851e+00
  , -2.11784853e+00,  -1.89729985e-01,  -1.11691488e-01,  -1.29840548e+00
  , -1.06500655e+00,  -1.90944334e+00,  -1.25403180e+00,   4.02964504e-01
  ,  5.11838827e-01,   7.95776914e-01,  -1.01034965e+00,   1.23687131e-01
  , -3.69317858e-01,  -5.80100173e-01,  -7.95445280e-02,  -2.93582212e-01
  ,  1.14516692e-01,   7.76431182e-01,  -1.17821709e-01,   1.57022311e+00
  , -1.41621800e+00,  -2.66026270e-01,   5.12572163e-01,   6.61130694e-01
  ,  8.63295467e-01,  -6.37176885e-02,   6.13225857e-01,  -5.15484960e-01
  , -1.61193618e+00,  -8.54778386e-01,  -6.88599332e-01,  -9.54021862e-01
  , -1.38062331e+00,  -1.24030391e+00,  -1.17167210e-01,  -1.08771239e+00
  , -1.32917576e+00,   4.21499968e-01,  -5.15638052e-01,   8.10952299e-01
  , -1.07152316e+00,   8.93267984e-02,  -9.83826747e-01,   5.52168000e-01
  , -1.07723989e+00,  -2.03882604e-01,   6.90016663e-02,  -7.22181753e-01
  ,  9.56985534e-02,   3.79564164e-01,   8.51734215e-01,  -1.27169714e+00
  , -1.05498048e+00,   7.13552930e-01,  -7.80396483e-01,   5.14484466e-01
  , -1.44752808e+00,  -1.19736182e+00,  -8.91568498e-01,   4.32520948e-01
  , -7.12983106e-01,  -1.63197097e+00,   2.86093782e-01,  -2.60074557e-02
  ,  1.26283012e+00,   2.88163069e-02,  -1.35928292e+00,   1.06932162e+00
  , -6.37571798e-01,   5.74386854e-01,  -1.68413669e-01,   1.04574495e-01
  ,  1.30857816e+00,   2.46578493e-01,  -9.43386736e-01,   9.54733082e-01
  , -6.60147311e-01,  -1.29378752e+00,  -2.88716365e-01,  -7.53766721e-01
  ,  4.25535332e-01,   2.01872308e-01,  -4.93706050e-01,  -2.22661174e+00
  , -2.39090342e+00,  -2.59708618e+00,   1.69603258e-01,  -2.30257279e-01
  , -7.15649169e-01,   1.12836257e+00,   1.56752259e+00,  -6.82498596e-01
  ,  8.11445191e-02,   2.13558625e-01,  -1.61556925e+00,  -3.82111729e-01
  , -1.27793260e+00,   1.76660005e+00,  -5.87893700e-01,   4.07041946e-01
  , -2.66691814e+00,  -4.00775807e-02,   6.15921161e-01,   3.35889648e-01
  , -8.76149513e-01,  -4.13527030e-01,  -1.74459209e+00,   4.77742214e-01
  ,  9.75497545e-01,  -1.71425265e+00,   1.91573650e+00,   5.53080242e-01
  , -2.25663947e+00,  -1.62825279e+00,   7.85101550e-02,  -9.12540476e-01
  ,  1.04778762e-01,   4.95710111e-01,  -1.35971973e+00,  -9.39990715e-01
  ,  3.91028201e-01,  -1.60600688e+00,   5.72149556e-01,   2.46296672e-03
  ,  9.55750180e-01,   1.90859436e+00,  -1.24602482e+00,  -1.84854865e+00
  ,  2.77558817e-02,  -7.34507937e-01,  -9.56171259e-01,   1.22763022e+00
  , -4.09556181e-01,   3.21188823e-01,  -1.15397209e+00,  -5.33259506e-01
  ,  1.40681841e+00,  -4.59530898e-01,   1.68010478e-01,   1.06381739e+00
  , -7.33570731e-01,  -1.35985772e+00,   5.69715384e-01,  -5.10723238e-01
  ,  4.32441871e-01,   5.30284621e-01,  -1.02457382e+00,   8.70880540e-01
  ,  8.76156932e-01,   3.88416501e-01,  -2.54449281e-01,  -1.72366724e-01
 ,  2.33579727e-01,  -1.72656824e+00,  -1.93050324e+00,  -4.75306856e-01
  , -4.16369055e-01,  -7.14729021e-02,  -4.61377037e-01,  -2.23120139e-01
  ,  1.45099686e-01,   1.21625219e+00,  -1.18292637e+00,  -1.06801057e+00
  ,  6.79521018e-01,   4.17910164e-01,   2.95610726e-01,  -7.13766289e-01
  , -1.30772094e-01,   7.88854503e-01,  -4.57789254e-01,   1.51491432e+00
  ,  8.16972607e-01,  -6.70320087e-02,   9.89958587e-01,  -9.41873070e-01
  ,  1.71122480e+00,  -5.01675732e-01,  -4.90757825e-02,  -1.52105994e+00
  ,  1.08749554e+00,   3.11544002e-01,   2.65250771e-01,   1.11924640e+00
  , -1.76316645e-01,   1.53981117e-01,  -6.31919054e-01,  -1.78715349e+00
  ,  1.09107096e-01,   1.46228146e+00,   5.60977250e-01,   7.51335841e-03
  ,  2.74479132e-01,  -6.93028808e-01,   1.08147611e+00,   3.71004031e-01
  ,  4.52641028e-01,  -2.13287287e+00,  -8.39997089e-01,  -1.21585052e+00
  ,  9.42362431e-01,  -4.87726355e-01,  -8.99925356e-01,  -8.35605907e-01
  , -2.55012421e-01,  -1.30154379e-01,  -3.72669667e-01,  -1.01581021e+00
  , -1.49702355e-01,   1.02124543e+00,  -1.18685681e+00,   8.41711177e-01
  , -7.49528493e-01,   1.19227255e+00,   1.17290844e+00,   1.87240492e+00
  ,  2.76265054e+00,  -6.46128699e-02,   6.75002831e-01,  -1.06381446e-02
  , -8.24580320e-01,  -5.63643581e-01,  -1.23830089e+00,   5.66256923e-01
  , -4.23175689e-01,  -1.01335783e+00,   1.00923278e-01,  -1.04595979e+00
  ,  1.28041773e+00,  -5.28331514e-01,  -1.62161469e-01,  -4.28958731e-01
  ,  3.24742311e+00,  -7.74435233e-01,   7.03496624e-01,  -9.08893367e-01
  , -7.05456362e-01,  -6.48410039e-01,   1.51436904e+00,  -1.52907300e-01
  , -3.57109089e-01,   6.35566566e-01,  -2.78393704e-01,  -4.22714291e-01
  , -1.25432911e+00,   4.05232423e-01,  -1.55858886e+00,   1.11359712e+00
  , -4.02740386e-01,   4.80413907e-01,  -9.24785790e-01,  -5.72562518e-01
  , -4.85354807e-02,   4.97001542e-02,  -1.19054534e+00,  -5.40656714e-01
  ,  3.27927582e-01,  -1.21870673e+00,  -5.83397247e-01,   1.93695015e+00
  , -2.32566241e-01,  -1.35846140e+00,  -1.32699265e+00,  -1.19517237e+00
  ,  6.11627337e-01,   1.09883744e+00,  -1.67661779e+00,   2.96769090e-01
  ,  4.64047566e-01,  -6.92619428e-01,  -7.37616023e-01,   5.40649319e-02
  ,  1.90723924e+00,  -2.20860200e-01,  -7.41773220e-01,   6.33231580e-01
  ,  8.92983126e-01,  -3.06004601e-01,  -7.96844761e-01,   2.99328196e-01
  ,  9.19272954e-01,  -2.82575962e-01,   5.24344834e-01,   1.02381283e+00
  ,  3.32980927e-01,   1.61873410e+00,   7.59462076e-01,  -1.04089780e+00
  ,  3.36001405e-01,   1.15636503e+00,  -1.02207442e+00,   1.07372859e-01
  ,  4.02428215e-01,   6.23461385e-01,  -6.83469628e-01,   3.49686428e-01
  ,  2.19611788e+00,   2.09038105e+00,   1.25466628e+00,   4.38893172e-01
  , -5.99416667e-01,  -2.45400945e-01,   7.45216990e-01,  -9.68513549e-01
  ,  1.21127325e+00,  -1.68015829e+00,   7.19708232e-02,  -7.42957955e-01
  , -1.80108243e+00,  -1.34896424e+00,   1.34566151e+00,  -3.66325617e-01
  ,  7.36104146e-02,   2.55785956e+00,  -2.90374524e-01,  -5.21882702e-01
  ,  1.08061928e-01,   6.60471711e-01,   3.42163607e-01,   1.80057697e+00
  , -1.10450269e+00,   7.08552422e-01,  -2.51899410e-01,  -1.05844671e+00
  , -2.76986453e+00,  -1.78132476e-01,   3.17012531e-01,   1.11722164e+00
  ,  1.81860949e+00,   8.95650806e-01,  -5.35530896e-01,  -2.21628703e+00
  , -1.24283626e+00,  -9.02521477e-01,  -1.75794316e+00,  -9.08286068e-02
  , -1.72250741e+00,  -2.76403532e+00,  -2.12517672e+00,  -1.76317092e+00
  ,  5.60421974e-01,  -8.14659087e-03,   1.01042738e+00,   1.08257132e+00
  , -8.15954545e-01,  -7.80596993e-01,   2.62587398e-01,  -1.22681925e+00
  ,  2.94979583e-01,   6.88185001e-01,  -5.95113517e-01,   1.29240496e-01
  ,  8.93346634e-01,   2.05191094e+00,   2.02901122e+00,   6.24007018e-01
  , -9.26387271e-01,   4.97379634e-01,  -8.83568424e-01,   3.86357660e-01
  , -2.25235196e+00,  -1.47537201e+00,  -1.21064220e+00,  -1.14761442e+00
  , -2.03119096e+00,  -1.45760830e+00,  -1.19490528e+00,  -8.50391037e-01
  ,  6.48700776e-01,   1.71214950e+00,   2.10740679e+00,   1.98614414e-01
  ,  1.26613968e+00,   5.83898709e-01,   2.13771038e-01,   1.40832857e+00
  , -3.01948684e-01,   2.10821728e-01,   6.04966849e-01,   4.29902888e-01
  ,  2.12911277e+00,   4.31105553e-01,   1.62213156e+00,   1.46438684e+00
  , -7.88980428e-01,  -5.70575242e-01,   7.73587155e-01,  -1.06591149e+00
  , -6.70861480e-01,  -9.41167006e-01,  -1.95523990e+00,  -1.29643761e+00
  , -1.52898880e+00,  -1.03056594e+00,  -7.78909945e-01,   1.38041779e+00
  , -8.52833734e-01,   8.56870182e-01,  -1.15943786e+00,   4.96693499e-01
  ,  7.91226745e-01,  -5.95629312e-01,  -2.25413510e-01,  -1.08288195e+00
  , -1.27341952e+00,   1.22271084e-01,   1.43866484e+00,  -7.80004581e-01
  , -7.92475669e-01,   2.43238446e+00,   4.43399922e-01,   2.81961966e+00
  ,  4.07710009e-01,   9.05380179e-01,   1.10365068e+00,   6.21439601e-01
  ,  6.87392203e-02,  -1.32063756e+00,  -2.05777280e+00,  -2.48281975e+00
  ,  6.15062004e-01,  -1.89574431e+00,  -8.28957710e-01,  -1.35741508e+00
  ,  2.45112464e-01,   4.10443673e-01,   2.29201726e-01,   1.63066399e+00
  , -4.30752821e-01,  -1.20444335e+00,  -1.57458484e+00,  -5.58412551e-01
  ,  3.61605819e-01,  -8.43900772e-01,   4.63172647e-01,  -5.95948611e-01
  , -1.00718371e+00,  -2.48260033e-01,   2.39082314e+00,   6.31372288e-01
  ,  1.24361775e+00,   1.01277074e+00,   9.52039196e-01,  -5.93050805e-01
  , -2.09297059e+00,  -1.67129705e+00,  -5.32117286e-01,   1.23402236e+00
  , -1.57489035e+00,   1.07768500e+00,   4.20690280e-01,   2.11421837e+00
  ,  3.80910653e-01,   5.59052223e-01,  -7.59306627e-01,   6.43232574e-01
  , -3.05719039e-01,   5.81963152e-03,   3.27522890e+00,  -1.91401442e+00
  , -1.84293350e+00,  -1.28781853e+00,  -2.53242960e+00,   4.95963202e-02
  , -9.17868908e-01,   4.41812587e-01,   8.36028147e-01,   5.61029978e-01
  ,  1.04754937e+00,   2.68662389e+00,   1.49998249e+00,  -9.78237603e-02
  ,  3.76400186e-01,  -1.48449356e-01,   2.24828033e+00,   6.93074036e-01
  , -1.23754002e+00,  -5.55988578e-01,   1.72656657e+00,  -1.51192028e+00
  ,  6.84415661e-01,  -3.27020792e-01,   1.07387666e+00,  -6.77268445e-01
  ,  6.17002115e-01,  -3.02382669e+00,   1.31107267e+00,  -2.43581039e+00
  ,  4.43368105e-01,   7.18086930e-01,   3.18720502e-01,  -7.83647535e-01
  ,  1.78634575e-01,  -2.69139136e-01,  -1.78271509e+00,   9.39212199e-01
  ,  1.99493672e-01,  -5.31008755e-01,  -4.13233443e-01,  -1.89896854e+00
  ,  1.30575391e+00,   2.57000888e+00,  -9.05260732e-02,   1.15066677e+00
  , -1.38417985e+00,  -1.32174595e+00,  -5.97677767e-01,   9.59168000e-01
  ,  2.19001762e-01,   9.56974250e-01,  -1.53599389e+00,  -9.15399212e-01
  , -1.86633412e-01,  -1.67602477e+00,  -3.59211863e-01,  -1.69903213e+00
  , -1.87439966e-01,   1.82440551e-01,  -1.25777675e-01,  -3.73153545e-01
  , -1.96704369e-01,  -7.53990094e-01,  -7.49404738e-01,  -9.33778851e-01
  , -1.50081802e+00,  -3.72005610e+00,  -6.48708514e-01,  -2.20560404e-01
  ,  2.04010451e+00,   1.65911210e+00,  -1.09836871e+00,   2.48542874e+00
  ,  1.37845525e+00,  -1.43855085e-01,  -4.89157960e-01,  -9.61118288e-01
  ,  2.57728889e-01,   1.46604867e+00,  -2.10706237e+00,  -6.36951661e-01
  ,  1.06266584e+00,   1.77229261e+00,   1.62733748e+00,   9.63971242e-01
  , -3.79315651e-01,   1.02248494e-01,  -5.31213166e-01,  -6.59918906e-01
  , -2.21383731e+00,  -3.56734957e-01,  -6.00445186e-01,  -2.09209451e+00
  , -2.28605295e+00,  -1.31940987e+00,  -7.24657128e-01,   2.24702716e+00
  ,  1.58399133e+00,   1.61615237e+00,   8.40163034e-01,   6.38855876e-01
  ,  5.47971905e-01,   4.05712285e-01,   1.06681182e+00,   1.18868820e+00
  ,  1.07892014e+00,   1.71602101e+00,   9.41370213e-01,   9.39628163e-01
  , -2.24946483e-01,  -6.09200340e-01,  -1.06779030e+00,  -3.86635986e-01
  ,  2.99061297e-01,  -1.66685851e+00,  -3.64380347e-01,   1.18328632e+00
  , -5.86014186e-02,  -1.41668386e+00,  -3.20135486e-01,  -2.32358790e+00
  , -7.87659216e-01,   5.00660781e-01,   2.82036725e-01,   2.44522432e+00
  ,  3.85367989e-01,   5.86470010e-01,   1.73992391e+00,   2.89183515e-01
  ,  6.16088133e-01,   7.75945174e-01,   1.32419099e+00,  -3.23765166e-01
  , -4.11730648e-01,   3.07092333e-01,  -1.82477118e+00,  -8.56910894e-02
  , -6.62336131e-01,   4.47164082e-01,   1.93228916e+00,  -4.09030075e-01
  , -1.67627501e+00,   3.03987679e-01,   7.80115383e-01,   9.06195281e-01
  ,  1.10167436e+00,  -1.83668228e+00,  -1.44215954e+00,  -7.39724276e-01
  , -2.48017767e-01,  -8.30181499e-01,   9.26001860e-01,   8.47535240e-01
  ,  2.21891756e+00,   1.23231692e+00,   3.85176124e-01,   2.59825652e+00
  , -8.66888838e-02,  -5.81903670e-01,  -1.20832422e+00,   3.55932923e-01
  , -8.42929197e-01,  -6.26203726e-01,  -1.77823512e+00,  -8.31091388e-02
  , -1.79620466e+00,   3.23448638e-01,   4.20828125e-01,   5.24216421e-01
  , -6.13451688e-01,   5.80984871e-01,  -1.71642410e+00,   8.28565244e-01
  , -1.28661202e+00,   4.15859866e-01,  -1.58212572e+00,  -1.37739241e+00
  , -4.38383963e-01,   2.14360357e+00,   2.71033694e-01,   1.11095505e+00
  ,  1.78008604e+00,  -5.94323877e-01,   1.28595324e-01,   1.29815981e-01
  ,  1.47920868e+00,  -2.73202249e-01,   9.12042787e-02,  -9.09951878e-01
  , -2.61735435e+00,  -9.40994069e-01,  -1.41291302e+00,  -1.17557930e-01
  , -6.37048877e-01,   7.09588478e-01,  -8.53171111e-01,  -2.13143191e+00
  ,  1.30751835e+00,   3.95415543e+00,   9.44961859e-01,  -5.86308666e-01
  , -3.14566389e+00,  -1.60911302e-01,  -1.98276201e+00,   2.32239046e-01
  ,  5.20397586e-01,   1.74854703e+00,   6.41122119e-01,   2.19766859e+00
  ,  1.77704919e+00,   5.77635030e-01,  -3.71802497e-02,  -9.48400035e-01
  , -2.35558881e-01,  -1.14583538e+00,  -9.32714597e-01,  -1.44701029e+00
  , -2.27735720e+00,  -2.06093094e+00,  -5.60040467e-01,  -7.82594252e-01
  ,  6.08015077e-01,   1.22465193e+00,  -8.22613341e-01,  -1.31312678e+00
  ,  3.26109304e-01,   2.93069715e-02,  -4.11444301e-01,  -2.10224114e-04
  , -4.19586279e-01,  -1.81514740e+00,   5.53587262e-01,  -2.89392653e-01
  ,  1.09913641e+00,   2.09595292e+00,   2.65096177e+00,   1.05735517e+00
  ,  1.58691194e+00,  -5.40433873e-01,  -8.17036788e-01,  -1.26753135e+00
  , -9.23053045e-01,  -4.84294112e-02,  -1.42673255e-01,  -9.78448482e-01
  , -9.40347391e-01,  -1.91113479e-01,  -2.23660762e-01,   3.41478696e-01
  , -2.80045079e-01,   2.59882972e-01,   3.69209625e-01,  -1.09752023e+00
  , -4.69108931e-01,  -4.63270987e-01,  -1.46628992e+00,   7.62551254e-01
  , -8.88332465e-01,  -3.88552230e-01,  -3.43971672e-02,  -5.70079474e-01
  ,  1.65865672e+00,  -5.81658715e-01,   3.51222292e-01,   2.18361689e+00
  ,  6.97093734e-01,  -1.42502742e+00,  -1.63225684e+00,   6.06294686e-02
  , -7.92469080e-01,  -1.65917737e+00,   2.38942676e-02,  -2.72286833e-01
  ,  3.33533133e-01,  -1.42514630e+00,   4.06504346e-01,   2.57159606e+00
  ,  1.69992430e-01,  -7.27014699e-01,   1.87593299e+00,   4.10080755e-01
  ,  7.57917383e-01,   2.04088759e-01,   9.46977947e-01,   9.21650042e-01
  , -6.03301285e-01,   2.00605669e+00,   1.49814427e+00,   5.54664955e-01
  , -3.97555606e-02,  -9.03592634e-02,   4.70669769e-01,   1.15177870e-02
  , -1.55371316e+00,   5.09369684e-01,   9.31073074e-01,   6.75997244e-01
  , -3.90287354e-01,   9.10529272e-01,  -5.69748951e-01,   1.90850703e+00
  ,  3.25219162e-01,   2.27155208e-01,  -1.49168774e+00,   2.81586463e+00
  , -5.76884502e-02,   1.63638106e-01,  -1.42292037e-01,  -1.08993100e+00
  , -5.73364250e-01,  -6.34884017e-01,   5.90475694e-01,   9.23369791e-01
  , -8.50202269e-01,  -1.15408896e+00,  -1.22825140e-01,   1.81304141e-01
  , -8.11005058e-01,  -5.04737351e-01,  -1.48647581e-01,   1.55239754e+00
  ,  1.10864253e+00,   4.98994452e-02,  -4.08076824e-01,   2.42474906e-01
  ,  7.80415589e-02,  -8.77876294e-01,  -7.94887214e-01,  -4.71004630e-01
  ,  1.48863981e+00,   3.92193725e-02,  -3.87145959e-01,  -7.94927925e-01
  , -1.13687215e+00,   1.65898940e+00,   4.51055198e-01,  -7.35626498e-01
  ,  8.20016445e-03,  -1.24721403e+00,   1.18013277e+00,   1.40292463e-02
  , -5.64593055e-01,  -6.95405013e-01,   3.39046161e-01,  -1.34570172e+00
  , -1.72678594e+00,   7.53791158e-01,   1.78595427e+00,   3.10357196e-01
  ,  1.70290948e+00,   1.26788960e+00,   1.01777793e+00,   6.42231462e-01
  , -5.55489633e-01,  -6.30732303e-01,  -8.07362230e-01,   7.63338034e-01
  ,  6.96599091e-01,   1.23687594e-01,  -1.02214488e+00,  -1.94752038e+00
  ,  2.97018010e-01,   2.23253299e+00,  -5.91072014e-01,   4.16888600e-01
  ,  2.20175122e+00,   3.94140292e-01,   1.76953996e-01,   3.74891180e-01
  , -2.29666866e-01,  -1.53785571e+00,   2.36190668e-01,  -7.14726546e-01
  , -2.39208941e+00,  -2.50013206e-02,   6.60813017e-01,   1.45690560e+00
  ,  7.77062101e-01,   4.73343750e-01,  -1.96685377e-01,   7.48770358e-01
  ,  1.37429742e+00,  -5.96829973e-01,   2.02291059e+00,   1.57659526e+00
  ,  5.62085648e-02,  -9.59495843e-01,  -5.71268430e-01,   7.67658835e-01
  ,  2.33989471e+00,  -9.05928212e-01,  -2.12337566e-01,  -1.06045149e+00
